FANN_FLO_2.1
num_layers=5
learning_rate=0.700000
connection_rate=1.000000
network_type=0
learning_momentum=0.000000
training_algorithm=2
train_error_function=1
train_stop_function=0
cascade_output_change_fraction=0.010000
quickprop_decay=-0.000100
quickprop_mu=1.750000
rprop_increase_factor=1.200000
rprop_decrease_factor=0.500000
rprop_delta_min=0.000000
rprop_delta_max=50.000000
rprop_delta_zero=0.100000
cascade_output_stagnation_epochs=12
cascade_candidate_change_fraction=0.010000
cascade_candidate_stagnation_epochs=12
cascade_max_out_epochs=150
cascade_min_out_epochs=50
cascade_max_cand_epochs=150
cascade_min_cand_epochs=50
cascade_num_candidate_groups=2
bit_fail_limit=3.49999994039535522461e-01
cascade_candidate_limit=1.00000000000000000000e+03
cascade_weight_multiplier=4.00000005960464477539e-01
cascade_activation_functions_count=10
cascade_activation_functions=3 5 7 8 10 11 14 15 16 17 
cascade_activation_steepnesses_count=4
cascade_activation_steepnesses=2.50000000000000000000e-01 5.00000000000000000000e-01 7.50000000000000000000e-01 1.00000000000000000000e+00 
layer_sizes=39 32 25 12 10 
scale_included=0
neurons (num_inputs, activation_function, activation_steepness)=(0, 0, 0.00000000000000000000e+00) (0, 0, 0.00000000000000000000e+00) (0, 0, 0.00000000000000000000e+00) (0, 0, 0.00000000000000000000e+00) (0, 0, 0.00000000000000000000e+00) (0, 0, 0.00000000000000000000e+00) (0, 0, 0.00000000000000000000e+00) (0, 0, 0.00000000000000000000e+00) (0, 0, 0.00000000000000000000e+00) (0, 0, 0.00000000000000000000e+00) (0, 0, 0.00000000000000000000e+00) (0, 0, 0.00000000000000000000e+00) (0, 0, 0.00000000000000000000e+00) (0, 0, 0.00000000000000000000e+00) (0, 0, 0.00000000000000000000e+00) (0, 0, 0.00000000000000000000e+00) (0, 0, 0.00000000000000000000e+00) (0, 0, 0.00000000000000000000e+00) (0, 0, 0.00000000000000000000e+00) (0, 0, 0.00000000000000000000e+00) (0, 0, 0.00000000000000000000e+00) (0, 0, 0.00000000000000000000e+00) (0, 0, 0.00000000000000000000e+00) (0, 0, 0.00000000000000000000e+00) (0, 0, 0.00000000000000000000e+00) (0, 0, 0.00000000000000000000e+00) (0, 0, 0.00000000000000000000e+00) (0, 0, 0.00000000000000000000e+00) (0, 0, 0.00000000000000000000e+00) (0, 0, 0.00000000000000000000e+00) (0, 0, 0.00000000000000000000e+00) (0, 0, 0.00000000000000000000e+00) (0, 0, 0.00000000000000000000e+00) (0, 0, 0.00000000000000000000e+00) (0, 0, 0.00000000000000000000e+00) (0, 0, 0.00000000000000000000e+00) (0, 0, 0.00000000000000000000e+00) (0, 0, 0.00000000000000000000e+00) (0, 0, 0.00000000000000000000e+00) (39, 0, 5.00000000000000000000e-01) (39, 0, 5.00000000000000000000e-01) (39, 0, 5.00000000000000000000e-01) (39, 0, 5.00000000000000000000e-01) (39, 0, 5.00000000000000000000e-01) (39, 0, 5.00000000000000000000e-01) (39, 0, 5.00000000000000000000e-01) (39, 0, 5.00000000000000000000e-01) (39, 0, 5.00000000000000000000e-01) (39, 0, 5.00000000000000000000e-01) (39, 0, 5.00000000000000000000e-01) (39, 0, 5.00000000000000000000e-01) (39, 0, 5.00000000000000000000e-01) (39, 0, 5.00000000000000000000e-01) (39, 0, 5.00000000000000000000e-01) (39, 0, 5.00000000000000000000e-01) (39, 0, 5.00000000000000000000e-01) (39, 0, 5.00000000000000000000e-01) (39, 0, 5.00000000000000000000e-01) (39, 0, 5.00000000000000000000e-01) (39, 0, 5.00000000000000000000e-01) (39, 0, 5.00000000000000000000e-01) (39, 0, 5.00000000000000000000e-01) (39, 0, 5.00000000000000000000e-01) (39, 0, 5.00000000000000000000e-01) (39, 0, 5.00000000000000000000e-01) (39, 0, 5.00000000000000000000e-01) (39, 0, 5.00000000000000000000e-01) (39, 0, 5.00000000000000000000e-01) (39, 0, 5.00000000000000000000e-01) (39, 0, 5.00000000000000000000e-01) (0, 0, 0.00000000000000000000e+00) (32, 0, 5.00000000000000000000e-01) (32, 0, 5.00000000000000000000e-01) (32, 0, 5.00000000000000000000e-01) (32, 0, 5.00000000000000000000e-01) (32, 0, 5.00000000000000000000e-01) (32, 0, 5.00000000000000000000e-01) (32, 0, 5.00000000000000000000e-01) (32, 0, 5.00000000000000000000e-01) (32, 0, 5.00000000000000000000e-01) (32, 0, 5.00000000000000000000e-01) (32, 0, 5.00000000000000000000e-01) (32, 0, 5.00000000000000000000e-01) (32, 0, 5.00000000000000000000e-01) (32, 0, 5.00000000000000000000e-01) (32, 0, 5.00000000000000000000e-01) (32, 0, 5.00000000000000000000e-01) (32, 0, 5.00000000000000000000e-01) (32, 0, 5.00000000000000000000e-01) (32, 0, 5.00000000000000000000e-01) (32, 0, 5.00000000000000000000e-01) (32, 0, 5.00000000000000000000e-01) (32, 0, 5.00000000000000000000e-01) (32, 0, 5.00000000000000000000e-01) (32, 0, 5.00000000000000000000e-01) (0, 0, 0.00000000000000000000e+00) (25, 0, 5.00000000000000000000e-01) (25, 0, 5.00000000000000000000e-01) (25, 0, 5.00000000000000000000e-01) (25, 0, 5.00000000000000000000e-01) (25, 0, 5.00000000000000000000e-01) (25, 0, 5.00000000000000000000e-01) (25, 0, 5.00000000000000000000e-01) (25, 0, 5.00000000000000000000e-01) (25, 0, 5.00000000000000000000e-01) (25, 0, 5.00000000000000000000e-01) (25, 0, 5.00000000000000000000e-01) (0, 0, 0.00000000000000000000e+00) (12, 0, 5.00000000000000000000e-01) (12, 0, 5.00000000000000000000e-01) (12, 0, 5.00000000000000000000e-01) (12, 0, 5.00000000000000000000e-01) (12, 0, 5.00000000000000000000e-01) (12, 0, 5.00000000000000000000e-01) (12, 0, 5.00000000000000000000e-01) (12, 0, 5.00000000000000000000e-01) (12, 0, 5.00000000000000000000e-01) (0, 0, 0.00000000000000000000e+00) 
connections (connected_to_neuron, weight)=(0, -1.47240429687500000000e+03) (1, 1.50000000000000000000e+03) (2, 1.50000000000000000000e+03) (3, 1.50000000000000000000e+03) (4, 1.50000000000000000000e+03) (5, 1.50000000000000000000e+03) (6, 1.50000000000000000000e+03) (7, 1.50000000000000000000e+03) (8, 2.76323175430297851562e+00) (9, 3.63304710388183593750e+00) (10, -1.49999987792968750000e+03) (11, 5.93527648925781250000e+02) (12, 3.08442077636718750000e+02) (13, 6.18102722167968750000e+02) (14, -1.00804296875000000000e+03) (15, 1.49999987792968750000e+03) (16, -1.49939892578125000000e+03) (17, -1.74033689498901367188e+00) (18, 1.49974011230468750000e+03) (19, 8.50062847137451171875e+00) (20, 5.82047119140625000000e+02) (21, -1.44380883789062500000e+03) (22, 1.22499961853027343750e+01) (23, 1.49999963378906250000e+03) (24, -1.44299304199218750000e+03) (25, 2.99583053588867187500e+00) (26, 1.49999963378906250000e+03) (27, 5.66838693618774414062e+00) (28, -1.82229404449462890625e+01) (29, -4.34486312866210937500e+01) (30, -4.34499244689941406250e+01) (31, -1.48806420898437500000e+03) (32, 8.36875057220458984375e+00) (33, -1.28212561035156250000e+03) (34, 1.25879173278808593750e+01) (35, 5.94997924804687500000e+02) (36, -1.48782739257812500000e+03) (37, -1.45445715332031250000e+03) (38, -7.05417861938476562500e+01) (0, -1.47240429687500000000e+03) (1, 1.50000000000000000000e+03) (2, 1.50000000000000000000e+03) (3, 1.50000000000000000000e+03) (4, 1.50000000000000000000e+03) (5, 1.50000000000000000000e+03) (6, 1.50000000000000000000e+03) (7, 1.50000000000000000000e+03) (8, 2.76323175430297851562e+00) (9, 3.63304710388183593750e+00) (10, -1.49999987792968750000e+03) (11, 5.93527648925781250000e+02) (12, 3.08442077636718750000e+02) (13, 6.18102722167968750000e+02) (14, -1.00804296875000000000e+03) (15, 1.49999987792968750000e+03) (16, -1.49939892578125000000e+03) (17, -1.74033689498901367188e+00) (18, 1.49974011230468750000e+03) (19, 8.50062847137451171875e+00) (20, 5.82047119140625000000e+02) (21, -1.44380883789062500000e+03) (22, 1.22499961853027343750e+01) (23, 1.49999963378906250000e+03) (24, -1.44299304199218750000e+03) (25, 2.99583053588867187500e+00) (26, 1.49999963378906250000e+03) (27, 5.66838693618774414062e+00) (28, -1.82229404449462890625e+01) (29, -4.34486312866210937500e+01) (30, -4.34499244689941406250e+01) (31, -1.48806420898437500000e+03) (32, 8.36875057220458984375e+00) (33, -1.28212561035156250000e+03) (34, 1.25879173278808593750e+01) (35, 5.94997924804687500000e+02) (36, -1.48782739257812500000e+03) (37, -1.45445715332031250000e+03) (38, -7.05417861938476562500e+01) (0, -1.47240429687500000000e+03) (1, 1.50000000000000000000e+03) (2, 1.50000000000000000000e+03) (3, 1.50000000000000000000e+03) (4, 1.50000000000000000000e+03) (5, 1.50000000000000000000e+03) (6, 1.50000000000000000000e+03) (7, 1.50000000000000000000e+03) (8, 2.76323175430297851562e+00) (9, 3.63304710388183593750e+00) (10, -1.49999987792968750000e+03) (11, 5.93527648925781250000e+02) (12, 3.08442077636718750000e+02) (13, 6.18102722167968750000e+02) (14, -1.00804296875000000000e+03) (15, 1.49999987792968750000e+03) (16, -1.49939892578125000000e+03) (17, -1.74033689498901367188e+00) (18, 1.49974011230468750000e+03) (19, 8.50062847137451171875e+00) (20, 5.82047119140625000000e+02) (21, -1.44380883789062500000e+03) (22, 1.22499961853027343750e+01) (23, 1.49999963378906250000e+03) (24, -1.44299304199218750000e+03) (25, 2.99583053588867187500e+00) (26, 1.49999963378906250000e+03) (27, 5.66838693618774414062e+00) (28, -1.82229404449462890625e+01) (29, -4.34486312866210937500e+01) (30, -4.34499244689941406250e+01) (31, -1.48806420898437500000e+03) (32, 8.36875057220458984375e+00) (33, -1.28212561035156250000e+03) (34, 1.25879173278808593750e+01) (35, 5.94997924804687500000e+02) (36, -1.48782739257812500000e+03) (37, -1.45445715332031250000e+03) (38, -7.05417861938476562500e+01) (0, -1.47240429687500000000e+03) (1, 1.50000000000000000000e+03) (2, 1.50000000000000000000e+03) (3, 1.50000000000000000000e+03) (4, 1.50000000000000000000e+03) (5, 1.50000000000000000000e+03) (6, 1.50000000000000000000e+03) (7, 1.50000000000000000000e+03) (8, 2.76323175430297851562e+00) (9, 3.63304710388183593750e+00) (10, -1.49999987792968750000e+03) (11, 5.93527648925781250000e+02) (12, 3.08442077636718750000e+02) (13, 6.18102722167968750000e+02) (14, -1.00804296875000000000e+03) (15, 1.49999987792968750000e+03) (16, -1.49939892578125000000e+03) (17, -1.74033689498901367188e+00) (18, 1.49974011230468750000e+03) (19, 8.50062847137451171875e+00) (20, 5.82047119140625000000e+02) (21, -1.44380883789062500000e+03) (22, 1.22499961853027343750e+01) (23, 1.49999963378906250000e+03) (24, -1.44299304199218750000e+03) (25, 2.99583053588867187500e+00) (26, 1.49999963378906250000e+03) (27, 5.66838693618774414062e+00) (28, -1.82229404449462890625e+01) (29, -4.34486312866210937500e+01) (30, -4.34499244689941406250e+01) (31, -1.48806420898437500000e+03) (32, 8.36875057220458984375e+00) (33, -1.28212561035156250000e+03) (34, 1.25879173278808593750e+01) (35, 5.94997924804687500000e+02) (36, -1.48782739257812500000e+03) (37, -1.45445715332031250000e+03) (38, -7.05417861938476562500e+01) (0, -1.47240429687500000000e+03) (1, 1.50000000000000000000e+03) (2, 1.50000000000000000000e+03) (3, 1.50000000000000000000e+03) (4, 1.50000000000000000000e+03) (5, 1.50000000000000000000e+03) (6, 1.50000000000000000000e+03) (7, 1.50000000000000000000e+03) (8, 2.76323175430297851562e+00) (9, 3.63304710388183593750e+00) (10, -1.49999987792968750000e+03) (11, 5.93527648925781250000e+02) (12, 3.08442077636718750000e+02) (13, 6.18102722167968750000e+02) (14, -1.00804296875000000000e+03) (15, 1.49999987792968750000e+03) (16, -1.49939892578125000000e+03) (17, -1.74033689498901367188e+00) (18, 1.49974011230468750000e+03) (19, 8.50062847137451171875e+00) (20, 5.82047119140625000000e+02) (21, -1.44380883789062500000e+03) (22, 1.22499961853027343750e+01) (23, 1.49999963378906250000e+03) (24, -1.44299304199218750000e+03) (25, 2.99583053588867187500e+00) (26, 1.49999963378906250000e+03) (27, 5.66838693618774414062e+00) (28, -1.82229404449462890625e+01) (29, -4.34486312866210937500e+01) (30, -4.34499244689941406250e+01) (31, -1.48806420898437500000e+03) (32, 8.36875057220458984375e+00) (33, -1.28212561035156250000e+03) (34, 1.25879173278808593750e+01) (35, 5.94997924804687500000e+02) (36, -1.48782739257812500000e+03) (37, -1.45445715332031250000e+03) (38, -7.05417861938476562500e+01) (0, -1.47240429687500000000e+03) (1, 1.50000000000000000000e+03) (2, 1.50000000000000000000e+03) (3, 1.50000000000000000000e+03) (4, 1.50000000000000000000e+03) (5, 1.50000000000000000000e+03) (6, 1.50000000000000000000e+03) (7, 1.50000000000000000000e+03) (8, 2.76323175430297851562e+00) (9, 3.63304710388183593750e+00) (10, -1.49999987792968750000e+03) (11, 5.93527648925781250000e+02) (12, 3.08442077636718750000e+02) (13, 6.18102722167968750000e+02) (14, -1.00804296875000000000e+03) (15, 1.49999987792968750000e+03) (16, -1.49939892578125000000e+03) (17, -1.74033689498901367188e+00) (18, 1.49974011230468750000e+03) (19, 8.50062847137451171875e+00) (20, 5.82047119140625000000e+02) (21, -1.44380883789062500000e+03) (22, 1.22499961853027343750e+01) (23, 1.49999963378906250000e+03) (24, -1.44299304199218750000e+03) (25, 2.99583053588867187500e+00) (26, 1.49999963378906250000e+03) (27, 5.66838693618774414062e+00) (28, -1.82229404449462890625e+01) (29, -4.34486312866210937500e+01) (30, -4.34499244689941406250e+01) (31, -1.48806420898437500000e+03) (32, 8.36875057220458984375e+00) (33, -1.28212561035156250000e+03) (34, 1.25879173278808593750e+01) (35, 5.94997924804687500000e+02) (36, -1.48782739257812500000e+03) (37, -1.45445715332031250000e+03) (38, -7.05417861938476562500e+01) (0, -1.47240429687500000000e+03) (1, 1.50000000000000000000e+03) (2, 1.50000000000000000000e+03) (3, 1.50000000000000000000e+03) (4, 1.50000000000000000000e+03) (5, 1.50000000000000000000e+03) (6, 1.50000000000000000000e+03) (7, 1.50000000000000000000e+03) (8, 2.76323175430297851562e+00) (9, 3.63304710388183593750e+00) (10, -1.49999987792968750000e+03) (11, 5.93527648925781250000e+02) (12, 3.08442077636718750000e+02) (13, 6.18102722167968750000e+02) (14, -1.00804296875000000000e+03) (15, 1.49999987792968750000e+03) (16, -1.49939892578125000000e+03) (17, -1.74033689498901367188e+00) (18, 1.49974011230468750000e+03) (19, 8.50062847137451171875e+00) (20, 5.82047119140625000000e+02) (21, -1.44380883789062500000e+03) (22, 1.22499961853027343750e+01) (23, 1.49999963378906250000e+03) (24, -1.44299304199218750000e+03) (25, 2.99583053588867187500e+00) (26, 1.49999963378906250000e+03) (27, 5.66838693618774414062e+00) (28, -1.82229404449462890625e+01) (29, -4.34486312866210937500e+01) (30, -4.34499244689941406250e+01) (31, -1.48806420898437500000e+03) (32, 8.36875057220458984375e+00) (33, -1.28212561035156250000e+03) (34, 1.25879173278808593750e+01) (35, 5.94997924804687500000e+02) (36, -1.48782739257812500000e+03) (37, -1.45445715332031250000e+03) (38, -7.05417861938476562500e+01) (0, -1.47240429687500000000e+03) (1, 1.50000000000000000000e+03) (2, 1.50000000000000000000e+03) (3, 1.50000000000000000000e+03) (4, 1.50000000000000000000e+03) (5, 1.50000000000000000000e+03) (6, 1.50000000000000000000e+03) (7, 1.50000000000000000000e+03) (8, 2.76323175430297851562e+00) (9, 3.63304710388183593750e+00) (10, -1.49999987792968750000e+03) (11, 5.93527648925781250000e+02) (12, 3.08442077636718750000e+02) (13, 6.18102722167968750000e+02) (14, -1.00804296875000000000e+03) (15, 1.49999987792968750000e+03) (16, -1.49939892578125000000e+03) (17, -1.74033689498901367188e+00) (18, 1.49974011230468750000e+03) (19, 8.50062847137451171875e+00) (20, 5.82047119140625000000e+02) (21, -1.44380883789062500000e+03) (22, 1.22499961853027343750e+01) (23, 1.49999963378906250000e+03) (24, -1.44299304199218750000e+03) (25, 2.99583053588867187500e+00) (26, 1.49999963378906250000e+03) (27, 5.66838693618774414062e+00) (28, -1.82229404449462890625e+01) (29, -4.34486312866210937500e+01) (30, -4.34499244689941406250e+01) (31, -1.48806420898437500000e+03) (32, 8.36875057220458984375e+00) (33, -1.28212561035156250000e+03) (34, 1.25879173278808593750e+01) (35, 5.94997924804687500000e+02) (36, -1.48782739257812500000e+03) (37, -1.45445715332031250000e+03) (38, -7.05417861938476562500e+01) (0, -1.47240429687500000000e+03) (1, 1.50000000000000000000e+03) (2, 1.50000000000000000000e+03) (3, 1.50000000000000000000e+03) (4, 1.50000000000000000000e+03) (5, 1.50000000000000000000e+03) (6, 1.50000000000000000000e+03) (7, 1.50000000000000000000e+03) (8, 2.76323175430297851562e+00) (9, 3.63304710388183593750e+00) (10, -1.49999987792968750000e+03) (11, 5.93527648925781250000e+02) (12, 3.08442077636718750000e+02) (13, 6.18102722167968750000e+02) (14, -1.00804296875000000000e+03) (15, 1.49999987792968750000e+03) (16, -1.49939892578125000000e+03) (17, -1.74033689498901367188e+00) (18, 1.49974011230468750000e+03) (19, 8.50062847137451171875e+00) (20, 5.82047119140625000000e+02) (21, -1.44380883789062500000e+03) (22, 1.22499961853027343750e+01) (23, 1.49999963378906250000e+03) (24, -1.44299304199218750000e+03) (25, 2.99583053588867187500e+00) (26, 1.49999963378906250000e+03) (27, 5.66838693618774414062e+00) (28, -1.82229404449462890625e+01) (29, -4.34486312866210937500e+01) (30, -4.34499244689941406250e+01) (31, -1.48806420898437500000e+03) (32, 8.36875057220458984375e+00) (33, -1.28212561035156250000e+03) (34, 1.25879173278808593750e+01) (35, 5.94997924804687500000e+02) (36, -1.48782739257812500000e+03) (37, -1.45445715332031250000e+03) (38, -7.05417861938476562500e+01) (0, -1.47240429687500000000e+03) (1, 1.50000000000000000000e+03) (2, 1.50000000000000000000e+03) (3, 1.50000000000000000000e+03) (4, 1.50000000000000000000e+03) (5, 1.50000000000000000000e+03) (6, 1.50000000000000000000e+03) (7, 1.50000000000000000000e+03) (8, 2.76323175430297851562e+00) (9, 3.63304710388183593750e+00) (10, -1.49999987792968750000e+03) (11, 5.93527648925781250000e+02) (12, 3.08442077636718750000e+02) (13, 6.18102722167968750000e+02) (14, -1.00804296875000000000e+03) (15, 1.49999987792968750000e+03) (16, -1.49939892578125000000e+03) (17, -1.74033689498901367188e+00) (18, 1.49974011230468750000e+03) (19, 8.50062847137451171875e+00) (20, 5.82047119140625000000e+02) (21, -1.44380883789062500000e+03) (22, 1.22499961853027343750e+01) (23, 1.49999963378906250000e+03) (24, -1.44299304199218750000e+03) (25, 2.99583053588867187500e+00) (26, 1.49999963378906250000e+03) (27, 5.66838693618774414062e+00) (28, -1.82229404449462890625e+01) (29, -4.34486312866210937500e+01) (30, -4.34499244689941406250e+01) (31, -1.48806420898437500000e+03) (32, 8.36875057220458984375e+00) (33, -1.28212561035156250000e+03) (34, 1.25879173278808593750e+01) (35, 5.94997924804687500000e+02) (36, -1.48782739257812500000e+03) (37, -1.45445715332031250000e+03) (38, -7.05417861938476562500e+01) (0, -1.47240429687500000000e+03) (1, 1.50000000000000000000e+03) (2, 1.50000000000000000000e+03) (3, 1.50000000000000000000e+03) (4, 1.50000000000000000000e+03) (5, 1.50000000000000000000e+03) (6, 1.50000000000000000000e+03) (7, 1.50000000000000000000e+03) (8, 2.76323175430297851562e+00) (9, 3.63304710388183593750e+00) (10, -1.49999987792968750000e+03) (11, 5.93527648925781250000e+02) (12, 3.08442077636718750000e+02) (13, 6.18102722167968750000e+02) (14, -1.00804296875000000000e+03) (15, 1.49999987792968750000e+03) (16, -1.49939892578125000000e+03) (17, -1.74033689498901367188e+00) (18, 1.49974011230468750000e+03) (19, 8.50062847137451171875e+00) (20, 5.82047119140625000000e+02) (21, -1.44380883789062500000e+03) (22, 1.22499961853027343750e+01) (23, 1.49999963378906250000e+03) (24, -1.44299304199218750000e+03) (25, 2.99583053588867187500e+00) (26, 1.49999963378906250000e+03) (27, 5.66838693618774414062e+00) (28, -1.82229404449462890625e+01) (29, -4.34486312866210937500e+01) (30, -4.34499244689941406250e+01) (31, -1.48806420898437500000e+03) (32, 8.36875057220458984375e+00) (33, -1.28212561035156250000e+03) (34, 1.25879173278808593750e+01) (35, 5.94997924804687500000e+02) (36, -1.48782739257812500000e+03) (37, -1.45445715332031250000e+03) (38, -7.05417861938476562500e+01) (0, -1.47240429687500000000e+03) (1, 1.50000000000000000000e+03) (2, 1.50000000000000000000e+03) (3, 1.50000000000000000000e+03) (4, 1.50000000000000000000e+03) (5, 1.50000000000000000000e+03) (6, 1.50000000000000000000e+03) (7, 1.50000000000000000000e+03) (8, 2.76323175430297851562e+00) (9, 3.63304710388183593750e+00) (10, -1.49999987792968750000e+03) (11, 5.93527648925781250000e+02) (12, 3.08442077636718750000e+02) (13, 6.18102722167968750000e+02) (14, -1.00804296875000000000e+03) (15, 1.49999987792968750000e+03) (16, -1.49939892578125000000e+03) (17, -1.74033689498901367188e+00) (18, 1.49974011230468750000e+03) (19, 8.50062847137451171875e+00) (20, 5.82047119140625000000e+02) (21, -1.44380883789062500000e+03) (22, 1.22499961853027343750e+01) (23, 1.49999963378906250000e+03) (24, -1.44299304199218750000e+03) (25, 2.99583053588867187500e+00) (26, 1.49999963378906250000e+03) (27, 5.66838693618774414062e+00) (28, -1.82229404449462890625e+01) (29, -4.34486312866210937500e+01) (30, -4.34499244689941406250e+01) (31, -1.48806420898437500000e+03) (32, 8.36875057220458984375e+00) (33, -1.28212561035156250000e+03) (34, 1.25879173278808593750e+01) (35, 5.94997924804687500000e+02) (36, -1.48782739257812500000e+03) (37, -1.45445715332031250000e+03) (38, -7.05417861938476562500e+01) (0, -1.47240429687500000000e+03) (1, 1.50000000000000000000e+03) (2, 1.50000000000000000000e+03) (3, 1.50000000000000000000e+03) (4, 1.50000000000000000000e+03) (5, 1.50000000000000000000e+03) (6, 1.50000000000000000000e+03) (7, 1.50000000000000000000e+03) (8, 2.76323175430297851562e+00) (9, 3.63304710388183593750e+00) (10, -1.49999987792968750000e+03) (11, 5.93527648925781250000e+02) (12, 3.08442077636718750000e+02) (13, 6.18102722167968750000e+02) (14, -1.00804296875000000000e+03) (15, 1.49999987792968750000e+03) (16, -1.49939892578125000000e+03) (17, -1.74033689498901367188e+00) (18, 1.49974011230468750000e+03) (19, 8.50062847137451171875e+00) (20, 5.82047119140625000000e+02) (21, -1.44380883789062500000e+03) (22, 1.22499961853027343750e+01) (23, 1.49999963378906250000e+03) (24, -1.44299304199218750000e+03) (25, 2.99583053588867187500e+00) (26, 1.49999963378906250000e+03) (27, 5.66838693618774414062e+00) (28, -1.82229404449462890625e+01) (29, -4.34486312866210937500e+01) (30, -4.34499244689941406250e+01) (31, -1.48806420898437500000e+03) (32, 8.36875057220458984375e+00) (33, -1.28212561035156250000e+03) (34, 1.25879173278808593750e+01) (35, 5.94997924804687500000e+02) (36, -1.48782739257812500000e+03) (37, -1.45445715332031250000e+03) (38, -7.05417861938476562500e+01) (0, -1.47240429687500000000e+03) (1, 1.50000000000000000000e+03) (2, 1.50000000000000000000e+03) (3, 1.50000000000000000000e+03) (4, 1.50000000000000000000e+03) (5, 1.50000000000000000000e+03) (6, 1.50000000000000000000e+03) (7, 1.50000000000000000000e+03) (8, 2.76323175430297851562e+00) (9, 3.63304710388183593750e+00) (10, -1.49999987792968750000e+03) (11, 5.93527648925781250000e+02) (12, 3.08442077636718750000e+02) (13, 6.18102722167968750000e+02) (14, -1.00804296875000000000e+03) (15, 1.49999987792968750000e+03) (16, -1.49939892578125000000e+03) (17, -1.74033689498901367188e+00) (18, 1.49974011230468750000e+03) (19, 8.50062847137451171875e+00) (20, 5.82047119140625000000e+02) (21, -1.44380883789062500000e+03) (22, 1.22499961853027343750e+01) (23, 1.49999963378906250000e+03) (24, -1.44299304199218750000e+03) (25, 2.99583053588867187500e+00) (26, 1.49999963378906250000e+03) (27, 5.66838693618774414062e+00) (28, -1.82229404449462890625e+01) (29, -4.34486312866210937500e+01) (30, -4.34499244689941406250e+01) (31, -1.48806420898437500000e+03) (32, 8.36875057220458984375e+00) (33, -1.28212561035156250000e+03) (34, 1.25879173278808593750e+01) (35, 5.94997924804687500000e+02) (36, -1.48782739257812500000e+03) (37, -1.45445715332031250000e+03) (38, -7.05417861938476562500e+01) (0, -1.47240429687500000000e+03) (1, 1.50000000000000000000e+03) (2, 1.50000000000000000000e+03) (3, 1.50000000000000000000e+03) (4, 1.50000000000000000000e+03) (5, 1.50000000000000000000e+03) (6, 1.50000000000000000000e+03) (7, 1.50000000000000000000e+03) (8, 2.76323175430297851562e+00) (9, 3.63304710388183593750e+00) (10, -1.49999987792968750000e+03) (11, 5.93527648925781250000e+02) (12, 3.08442077636718750000e+02) (13, 6.18102722167968750000e+02) (14, -1.00804296875000000000e+03) (15, 1.49999987792968750000e+03) (16, -1.49939892578125000000e+03) (17, -1.74033689498901367188e+00) (18, 1.49974011230468750000e+03) (19, 8.50062847137451171875e+00) (20, 5.82047119140625000000e+02) (21, -1.44380883789062500000e+03) (22, 1.22499961853027343750e+01) (23, 1.49999963378906250000e+03) (24, -1.44299304199218750000e+03) (25, 2.99583053588867187500e+00) (26, 1.49999963378906250000e+03) (27, 5.66838693618774414062e+00) (28, -1.82229404449462890625e+01) (29, -4.34486312866210937500e+01) (30, -4.34499244689941406250e+01) (31, -1.48806420898437500000e+03) (32, 8.36875057220458984375e+00) (33, -1.28212561035156250000e+03) (34, 1.25879173278808593750e+01) (35, 5.94997924804687500000e+02) (36, -1.48782739257812500000e+03) (37, -1.45445715332031250000e+03) (38, -7.05417861938476562500e+01) (0, -1.47240429687500000000e+03) (1, 1.50000000000000000000e+03) (2, 1.50000000000000000000e+03) (3, 1.50000000000000000000e+03) (4, 1.50000000000000000000e+03) (5, 1.50000000000000000000e+03) (6, 1.50000000000000000000e+03) (7, 1.50000000000000000000e+03) (8, 2.76323175430297851562e+00) (9, 3.63304710388183593750e+00) (10, -1.49999987792968750000e+03) (11, 5.93527648925781250000e+02) (12, 3.08442077636718750000e+02) (13, 6.18102722167968750000e+02) (14, -1.00804296875000000000e+03) (15, 1.49999987792968750000e+03) (16, -1.49939892578125000000e+03) (17, -1.74033689498901367188e+00) (18, 1.49974011230468750000e+03) (19, 8.50062847137451171875e+00) (20, 5.82047119140625000000e+02) (21, -1.44380883789062500000e+03) (22, 1.22499961853027343750e+01) (23, 1.49999963378906250000e+03) (24, -1.44299304199218750000e+03) (25, 2.99583053588867187500e+00) (26, 1.49999963378906250000e+03) (27, 5.66838693618774414062e+00) (28, -1.82229404449462890625e+01) (29, -4.34486312866210937500e+01) (30, -4.34499244689941406250e+01) (31, -1.48806420898437500000e+03) (32, 8.36875057220458984375e+00) (33, -1.28212561035156250000e+03) (34, 1.25879173278808593750e+01) (35, 5.94997924804687500000e+02) (36, -1.48782739257812500000e+03) (37, -1.45445715332031250000e+03) (38, -7.05417861938476562500e+01) (0, -1.47240429687500000000e+03) (1, 1.50000000000000000000e+03) (2, 1.50000000000000000000e+03) (3, 1.50000000000000000000e+03) (4, 1.50000000000000000000e+03) (5, 1.50000000000000000000e+03) (6, 1.50000000000000000000e+03) (7, 1.50000000000000000000e+03) (8, 2.76323175430297851562e+00) (9, 3.63304710388183593750e+00) (10, -1.49999987792968750000e+03) (11, 5.93527648925781250000e+02) (12, 3.08442077636718750000e+02) (13, 6.18102722167968750000e+02) (14, -1.00804296875000000000e+03) (15, 1.49999987792968750000e+03) (16, -1.49939892578125000000e+03) (17, -1.74033689498901367188e+00) (18, 1.49974011230468750000e+03) (19, 8.50062847137451171875e+00) (20, 5.82047119140625000000e+02) (21, -1.44380883789062500000e+03) (22, 1.22499961853027343750e+01) (23, 1.49999963378906250000e+03) (24, -1.44299304199218750000e+03) (25, 2.99583053588867187500e+00) (26, 1.49999963378906250000e+03) (27, 5.66838693618774414062e+00) (28, -1.82229404449462890625e+01) (29, -4.34486312866210937500e+01) (30, -4.34499244689941406250e+01) (31, -1.48806420898437500000e+03) (32, 8.36875057220458984375e+00) (33, -1.28212561035156250000e+03) (34, 1.25879173278808593750e+01) (35, 5.94997924804687500000e+02) (36, -1.48782739257812500000e+03) (37, -1.45445715332031250000e+03) (38, -7.05417861938476562500e+01) (0, -1.47240429687500000000e+03) (1, 1.50000000000000000000e+03) (2, 1.50000000000000000000e+03) (3, 1.50000000000000000000e+03) (4, 1.50000000000000000000e+03) (5, 1.50000000000000000000e+03) (6, 1.50000000000000000000e+03) (7, 1.50000000000000000000e+03) (8, 2.76323175430297851562e+00) (9, 3.63304710388183593750e+00) (10, -1.49999987792968750000e+03) (11, 5.93527648925781250000e+02) (12, 3.08442077636718750000e+02) (13, 6.18102722167968750000e+02) (14, -1.00804296875000000000e+03) (15, 1.49999987792968750000e+03) (16, -1.49939892578125000000e+03) (17, -1.74033689498901367188e+00) (18, 1.49974011230468750000e+03) (19, 8.50062847137451171875e+00) (20, 5.82047119140625000000e+02) (21, -1.44380883789062500000e+03) (22, 1.22499961853027343750e+01) (23, 1.49999963378906250000e+03) (24, -1.44299304199218750000e+03) (25, 2.99583053588867187500e+00) (26, 1.49999963378906250000e+03) (27, 5.66838693618774414062e+00) (28, -1.82229404449462890625e+01) (29, -4.34486312866210937500e+01) (30, -4.34499244689941406250e+01) (31, -1.48806420898437500000e+03) (32, 8.36875057220458984375e+00) (33, -1.28212561035156250000e+03) (34, 1.25879173278808593750e+01) (35, 5.94997924804687500000e+02) (36, -1.48782739257812500000e+03) (37, -1.45445715332031250000e+03) (38, -7.05417861938476562500e+01) (0, -1.47240429687500000000e+03) (1, 1.50000000000000000000e+03) (2, 1.50000000000000000000e+03) (3, 1.50000000000000000000e+03) (4, 1.50000000000000000000e+03) (5, 1.50000000000000000000e+03) (6, 1.50000000000000000000e+03) (7, 1.50000000000000000000e+03) (8, 2.76323175430297851562e+00) (9, 3.63304710388183593750e+00) (10, -1.49999987792968750000e+03) (11, 5.93527648925781250000e+02) (12, 3.08442077636718750000e+02) (13, 6.18102722167968750000e+02) (14, -1.00804296875000000000e+03) (15, 1.49999987792968750000e+03) (16, -1.49939892578125000000e+03) (17, -1.74033689498901367188e+00) (18, 1.49974011230468750000e+03) (19, 8.50062847137451171875e+00) (20, 5.82047119140625000000e+02) (21, -1.44380883789062500000e+03) (22, 1.22499961853027343750e+01) (23, 1.49999963378906250000e+03) (24, -1.44299304199218750000e+03) (25, 2.99583053588867187500e+00) (26, 1.49999963378906250000e+03) (27, 5.66838693618774414062e+00) (28, -1.82229404449462890625e+01) (29, -4.34486312866210937500e+01) (30, -4.34499244689941406250e+01) (31, -1.48806420898437500000e+03) (32, 8.36875057220458984375e+00) (33, -1.28212561035156250000e+03) (34, 1.25879173278808593750e+01) (35, 5.94997924804687500000e+02) (36, -1.48782739257812500000e+03) (37, -1.45445715332031250000e+03) (38, -7.05417861938476562500e+01) (0, 1.50000000000000000000e+03) (1, 1.50000000000000000000e+03) (2, 1.50000000000000000000e+03) (3, 1.50000000000000000000e+03) (4, 1.50000000000000000000e+03) (5, 1.50000000000000000000e+03) (6, -1.50000000000000000000e+03) (7, 1.50000000000000000000e+03) (8, -1.46513500976562500000e+03) (9, -1.47336743164062500000e+03) (10, 1.50000000000000000000e+03) (11, -1.41887524414062500000e+03) (12, -1.38027355957031250000e+03) (13, -1.41818774414062500000e+03) (14, -1.45291967773437500000e+03) (15, -1.43407360839843750000e+03) (16, 1.50000000000000000000e+03) (17, -1.43133862304687500000e+03) (18, -1.44800000000000000000e+03) (19, -1.45248535156250000000e+03) (20, -1.41890026855468750000e+03) (21, 1.50000000000000000000e+03) (22, -1.37877307128906250000e+03) (23, -1.40876000976562500000e+03) (24, 1.50000000000000000000e+03) (25, -1.45797729492187500000e+03) (26, -1.49994445800781250000e+03) (27, -1.39261840820312500000e+03) (28, 1.50000000000000000000e+03) (29, -1.45244311523437500000e+03) (30, -1.45244018554687500000e+03) (31, -1.47308496093750000000e+03) (32, -1.45249206542968750000e+03) (33, 1.50000000000000000000e+03) (34, -1.37944775390625000000e+03) (35, -1.41772460937500000000e+03) (36, -1.47041906738281250000e+03) (37, 1.50000000000000000000e+03) (38, -1.45238208007812500000e+03) (0, -1.47240429687500000000e+03) (1, 1.50000000000000000000e+03) (2, 1.50000000000000000000e+03) (3, 1.50000000000000000000e+03) (4, 1.50000000000000000000e+03) (5, 1.50000000000000000000e+03) (6, 1.50000000000000000000e+03) (7, 1.50000000000000000000e+03) (8, 2.76323175430297851562e+00) (9, 3.63304710388183593750e+00) (10, -1.49999987792968750000e+03) (11, 5.93527648925781250000e+02) (12, 3.08442077636718750000e+02) (13, 6.18102722167968750000e+02) (14, -1.00804296875000000000e+03) (15, 1.49999987792968750000e+03) (16, -1.49939892578125000000e+03) (17, -1.74033689498901367188e+00) (18, 1.49974011230468750000e+03) (19, 8.50062847137451171875e+00) (20, 5.82047119140625000000e+02) (21, -1.44380883789062500000e+03) (22, 1.22499961853027343750e+01) (23, 1.49999963378906250000e+03) (24, -1.44299304199218750000e+03) (25, 2.99583053588867187500e+00) (26, 1.49999963378906250000e+03) (27, 5.66838693618774414062e+00) (28, -1.82229404449462890625e+01) (29, -4.34486312866210937500e+01) (30, -4.34499244689941406250e+01) (31, -1.48806420898437500000e+03) (32, 8.36875057220458984375e+00) (33, -1.28212561035156250000e+03) (34, 1.25879173278808593750e+01) (35, 5.94997924804687500000e+02) (36, -1.48782739257812500000e+03) (37, -1.45445715332031250000e+03) (38, -7.05417861938476562500e+01) (0, -1.47240429687500000000e+03) (1, 1.50000000000000000000e+03) (2, 1.50000000000000000000e+03) (3, 1.50000000000000000000e+03) (4, 1.50000000000000000000e+03) (5, 1.50000000000000000000e+03) (6, 1.50000000000000000000e+03) (7, 1.50000000000000000000e+03) (8, 2.76323175430297851562e+00) (9, 3.63304710388183593750e+00) (10, -1.49999987792968750000e+03) (11, 5.93527648925781250000e+02) (12, 3.08442077636718750000e+02) (13, 6.18102722167968750000e+02) (14, -1.00804296875000000000e+03) (15, 1.49999987792968750000e+03) (16, -1.49939892578125000000e+03) (17, -1.74033689498901367188e+00) (18, 1.49974011230468750000e+03) (19, 8.50062847137451171875e+00) (20, 5.82047119140625000000e+02) (21, -1.44380883789062500000e+03) (22, 1.22499961853027343750e+01) (23, 1.49999963378906250000e+03) (24, -1.44299304199218750000e+03) (25, 2.99583053588867187500e+00) (26, 1.49999963378906250000e+03) (27, 5.66838693618774414062e+00) (28, -1.82229404449462890625e+01) (29, -4.34486312866210937500e+01) (30, -4.34499244689941406250e+01) (31, -1.48806420898437500000e+03) (32, 8.36875057220458984375e+00) (33, -1.28212561035156250000e+03) (34, 1.25879173278808593750e+01) (35, 5.94997924804687500000e+02) (36, -1.48782739257812500000e+03) (37, -1.45445715332031250000e+03) (38, -7.05417861938476562500e+01) (0, -1.47240429687500000000e+03) (1, 1.50000000000000000000e+03) (2, 1.50000000000000000000e+03) (3, 1.50000000000000000000e+03) (4, 1.50000000000000000000e+03) (5, 1.50000000000000000000e+03) (6, 1.50000000000000000000e+03) (7, 1.50000000000000000000e+03) (8, 2.76323175430297851562e+00) (9, 3.63304710388183593750e+00) (10, -1.49999987792968750000e+03) (11, 5.93527648925781250000e+02) (12, 3.08442077636718750000e+02) (13, 6.18102722167968750000e+02) (14, -1.00804296875000000000e+03) (15, 1.49999987792968750000e+03) (16, -1.49939892578125000000e+03) (17, -1.74033689498901367188e+00) (18, 1.49974011230468750000e+03) (19, 8.50062847137451171875e+00) (20, 5.82047119140625000000e+02) (21, -1.44380883789062500000e+03) (22, 1.22499961853027343750e+01) (23, 1.49999963378906250000e+03) (24, -1.44299304199218750000e+03) (25, 2.99583053588867187500e+00) (26, 1.49999963378906250000e+03) (27, 5.66838693618774414062e+00) (28, -1.82229404449462890625e+01) (29, -4.34486312866210937500e+01) (30, -4.34499244689941406250e+01) (31, -1.48806420898437500000e+03) (32, 8.36875057220458984375e+00) (33, -1.28212561035156250000e+03) (34, 1.25879173278808593750e+01) (35, 5.94997924804687500000e+02) (36, -1.48782739257812500000e+03) (37, -1.45445715332031250000e+03) (38, -7.05417861938476562500e+01) (0, -1.47240429687500000000e+03) (1, 1.50000000000000000000e+03) (2, 1.50000000000000000000e+03) (3, 1.50000000000000000000e+03) (4, 1.50000000000000000000e+03) (5, 1.50000000000000000000e+03) (6, 1.50000000000000000000e+03) (7, 1.50000000000000000000e+03) (8, 2.76323175430297851562e+00) (9, 3.63304710388183593750e+00) (10, -1.49999987792968750000e+03) (11, 5.93527648925781250000e+02) (12, 3.08442077636718750000e+02) (13, 6.18102722167968750000e+02) (14, -1.00804296875000000000e+03) (15, 1.49999987792968750000e+03) (16, -1.49939892578125000000e+03) (17, -1.74033689498901367188e+00) (18, 1.49974011230468750000e+03) (19, 8.50062847137451171875e+00) (20, 5.82047119140625000000e+02) (21, -1.44380883789062500000e+03) (22, 1.22499961853027343750e+01) (23, 1.49999963378906250000e+03) (24, -1.44299304199218750000e+03) (25, 2.99583053588867187500e+00) (26, 1.49999963378906250000e+03) (27, 5.66838693618774414062e+00) (28, -1.82229404449462890625e+01) (29, -4.34486312866210937500e+01) (30, -4.34499244689941406250e+01) (31, -1.48806420898437500000e+03) (32, 8.36875057220458984375e+00) (33, -1.28212561035156250000e+03) (34, 1.25879173278808593750e+01) (35, 5.94997924804687500000e+02) (36, -1.48782739257812500000e+03) (37, -1.45445715332031250000e+03) (38, -7.05417861938476562500e+01) (0, -1.47240429687500000000e+03) (1, 1.50000000000000000000e+03) (2, 1.50000000000000000000e+03) (3, 1.50000000000000000000e+03) (4, 1.50000000000000000000e+03) (5, 1.50000000000000000000e+03) (6, 1.50000000000000000000e+03) (7, 1.50000000000000000000e+03) (8, 2.76323175430297851562e+00) (9, 3.63304710388183593750e+00) (10, -1.49999987792968750000e+03) (11, 5.93527648925781250000e+02) (12, 3.08442077636718750000e+02) (13, 6.18102722167968750000e+02) (14, -1.00804296875000000000e+03) (15, 1.49999987792968750000e+03) (16, -1.49939892578125000000e+03) (17, -1.74033689498901367188e+00) (18, 1.49974011230468750000e+03) (19, 8.50062847137451171875e+00) (20, 5.82047119140625000000e+02) (21, -1.44380883789062500000e+03) (22, 1.22499961853027343750e+01) (23, 1.49999963378906250000e+03) (24, -1.44299304199218750000e+03) (25, 2.99583053588867187500e+00) (26, 1.49999963378906250000e+03) (27, 5.66838693618774414062e+00) (28, -1.82229404449462890625e+01) (29, -4.34486312866210937500e+01) (30, -4.34499244689941406250e+01) (31, -1.48806420898437500000e+03) (32, 8.36875057220458984375e+00) (33, -1.28212561035156250000e+03) (34, 1.25879173278808593750e+01) (35, 5.94997924804687500000e+02) (36, -1.48782739257812500000e+03) (37, -1.45445715332031250000e+03) (38, -7.05417861938476562500e+01) (0, -1.47240429687500000000e+03) (1, 1.50000000000000000000e+03) (2, 1.50000000000000000000e+03) (3, 1.50000000000000000000e+03) (4, 1.50000000000000000000e+03) (5, 1.50000000000000000000e+03) (6, 1.50000000000000000000e+03) (7, 1.50000000000000000000e+03) (8, 2.76323175430297851562e+00) (9, 3.63304710388183593750e+00) (10, -1.49999987792968750000e+03) (11, 5.93527648925781250000e+02) (12, 3.08442077636718750000e+02) (13, 6.18102722167968750000e+02) (14, -1.00804296875000000000e+03) (15, 1.49999987792968750000e+03) (16, -1.49939892578125000000e+03) (17, -1.74033689498901367188e+00) (18, 1.49974011230468750000e+03) (19, 8.50062847137451171875e+00) (20, 5.82047119140625000000e+02) (21, -1.44380883789062500000e+03) (22, 1.22499961853027343750e+01) (23, 1.49999963378906250000e+03) (24, -1.44299304199218750000e+03) (25, 2.99583053588867187500e+00) (26, 1.49999963378906250000e+03) (27, 5.66838693618774414062e+00) (28, -1.82229404449462890625e+01) (29, -4.34486312866210937500e+01) (30, -4.34499244689941406250e+01) (31, -1.48806420898437500000e+03) (32, 8.36875057220458984375e+00) (33, -1.28212561035156250000e+03) (34, 1.25879173278808593750e+01) (35, 5.94997924804687500000e+02) (36, -1.48782739257812500000e+03) (37, -1.45445715332031250000e+03) (38, -7.05417861938476562500e+01) (0, -1.47240429687500000000e+03) (1, 1.50000000000000000000e+03) (2, 1.50000000000000000000e+03) (3, 1.50000000000000000000e+03) (4, 1.50000000000000000000e+03) (5, 1.50000000000000000000e+03) (6, 1.50000000000000000000e+03) (7, 1.50000000000000000000e+03) (8, 2.76323175430297851562e+00) (9, 3.63304710388183593750e+00) (10, -1.49999987792968750000e+03) (11, 5.93527648925781250000e+02) (12, 3.08442077636718750000e+02) (13, 6.18102722167968750000e+02) (14, -1.00804296875000000000e+03) (15, 1.49999987792968750000e+03) (16, -1.49939892578125000000e+03) (17, -1.74033689498901367188e+00) (18, 1.49974011230468750000e+03) (19, 8.50062847137451171875e+00) (20, 5.82047119140625000000e+02) (21, -1.44380883789062500000e+03) (22, 1.22499961853027343750e+01) (23, 1.49999963378906250000e+03) (24, -1.44299304199218750000e+03) (25, 2.99583053588867187500e+00) (26, 1.49999963378906250000e+03) (27, 5.66838693618774414062e+00) (28, -1.82229404449462890625e+01) (29, -4.34486312866210937500e+01) (30, -4.34499244689941406250e+01) (31, -1.48806420898437500000e+03) (32, 8.36875057220458984375e+00) (33, -1.28212561035156250000e+03) (34, 1.25879173278808593750e+01) (35, 5.94997924804687500000e+02) (36, -1.48782739257812500000e+03) (37, -1.45445715332031250000e+03) (38, -7.05417861938476562500e+01) (0, -1.47240429687500000000e+03) (1, 1.50000000000000000000e+03) (2, 1.50000000000000000000e+03) (3, 1.50000000000000000000e+03) (4, 1.50000000000000000000e+03) (5, 1.50000000000000000000e+03) (6, 1.50000000000000000000e+03) (7, 1.50000000000000000000e+03) (8, 2.76323175430297851562e+00) (9, 3.63304710388183593750e+00) (10, -1.49999987792968750000e+03) (11, 5.93527648925781250000e+02) (12, 3.08442077636718750000e+02) (13, 6.18102722167968750000e+02) (14, -1.00804296875000000000e+03) (15, 1.49999987792968750000e+03) (16, -1.49939892578125000000e+03) (17, -1.74033689498901367188e+00) (18, 1.49974011230468750000e+03) (19, 8.50062847137451171875e+00) (20, 5.82047119140625000000e+02) (21, -1.44380883789062500000e+03) (22, 1.22499961853027343750e+01) (23, 1.49999963378906250000e+03) (24, -1.44299304199218750000e+03) (25, 2.99583053588867187500e+00) (26, 1.49999963378906250000e+03) (27, 5.66838693618774414062e+00) (28, -1.82229404449462890625e+01) (29, -4.34486312866210937500e+01) (30, -4.34499244689941406250e+01) (31, -1.48806420898437500000e+03) (32, 8.36875057220458984375e+00) (33, -1.28212561035156250000e+03) (34, 1.25879173278808593750e+01) (35, 5.94997924804687500000e+02) (36, -1.48782739257812500000e+03) (37, -1.45445715332031250000e+03) (38, -7.05417861938476562500e+01) (0, -1.47240429687500000000e+03) (1, 1.50000000000000000000e+03) (2, 1.50000000000000000000e+03) (3, 1.50000000000000000000e+03) (4, 1.50000000000000000000e+03) (5, 1.50000000000000000000e+03) (6, 1.50000000000000000000e+03) (7, 1.50000000000000000000e+03) (8, 2.76323175430297851562e+00) (9, 3.63304710388183593750e+00) (10, -1.49999987792968750000e+03) (11, 5.93527648925781250000e+02) (12, 3.08442077636718750000e+02) (13, 6.18102722167968750000e+02) (14, -1.00804296875000000000e+03) (15, 1.49999987792968750000e+03) (16, -1.49939892578125000000e+03) (17, -1.74033689498901367188e+00) (18, 1.49974011230468750000e+03) (19, 8.50062847137451171875e+00) (20, 5.82047119140625000000e+02) (21, -1.44380883789062500000e+03) (22, 1.22499961853027343750e+01) (23, 1.49999963378906250000e+03) (24, -1.44299304199218750000e+03) (25, 2.99583053588867187500e+00) (26, 1.49999963378906250000e+03) (27, 5.66838693618774414062e+00) (28, -1.82229404449462890625e+01) (29, -4.34486312866210937500e+01) (30, -4.34499244689941406250e+01) (31, -1.48806420898437500000e+03) (32, 8.36875057220458984375e+00) (33, -1.28212561035156250000e+03) (34, 1.25879173278808593750e+01) (35, 5.94997924804687500000e+02) (36, -1.48782739257812500000e+03) (37, -1.45445715332031250000e+03) (38, -7.05417861938476562500e+01) (0, -1.47240429687500000000e+03) (1, 1.50000000000000000000e+03) (2, 1.50000000000000000000e+03) (3, 1.50000000000000000000e+03) (4, 1.50000000000000000000e+03) (5, 1.50000000000000000000e+03) (6, 1.50000000000000000000e+03) (7, 1.50000000000000000000e+03) (8, 2.76323175430297851562e+00) (9, 3.63304710388183593750e+00) (10, -1.49999987792968750000e+03) (11, 5.93527648925781250000e+02) (12, 3.08442077636718750000e+02) (13, 6.18102722167968750000e+02) (14, -1.00804296875000000000e+03) (15, 1.49999987792968750000e+03) (16, -1.49939892578125000000e+03) (17, -1.74033689498901367188e+00) (18, 1.49974011230468750000e+03) (19, 8.50062847137451171875e+00) (20, 5.82047119140625000000e+02) (21, -1.44380883789062500000e+03) (22, 1.22499961853027343750e+01) (23, 1.49999963378906250000e+03) (24, -1.44299304199218750000e+03) (25, 2.99583053588867187500e+00) (26, 1.49999963378906250000e+03) (27, 5.66838693618774414062e+00) (28, -1.82229404449462890625e+01) (29, -4.34486312866210937500e+01) (30, -4.34499244689941406250e+01) (31, -1.48806420898437500000e+03) (32, 8.36875057220458984375e+00) (33, -1.28212561035156250000e+03) (34, 1.25879173278808593750e+01) (35, 5.94997924804687500000e+02) (36, -1.48782739257812500000e+03) (37, -1.45445715332031250000e+03) (38, -7.05417861938476562500e+01) (0, -1.47240429687500000000e+03) (1, 1.50000000000000000000e+03) (2, 1.50000000000000000000e+03) (3, 1.50000000000000000000e+03) (4, 1.50000000000000000000e+03) (5, 1.50000000000000000000e+03) (6, 1.50000000000000000000e+03) (7, 1.50000000000000000000e+03) (8, 2.76323175430297851562e+00) (9, 3.63304710388183593750e+00) (10, -1.49999987792968750000e+03) (11, 5.93527648925781250000e+02) (12, 3.08442077636718750000e+02) (13, 6.18102722167968750000e+02) (14, -1.00804296875000000000e+03) (15, 1.49999987792968750000e+03) (16, -1.49939892578125000000e+03) (17, -1.74033689498901367188e+00) (18, 1.49974011230468750000e+03) (19, 8.50062847137451171875e+00) (20, 5.82047119140625000000e+02) (21, -1.44380883789062500000e+03) (22, 1.22499961853027343750e+01) (23, 1.49999963378906250000e+03) (24, -1.44299304199218750000e+03) (25, 2.99583053588867187500e+00) (26, 1.49999963378906250000e+03) (27, 5.66838693618774414062e+00) (28, -1.82229404449462890625e+01) (29, -4.34486312866210937500e+01) (30, -4.34499244689941406250e+01) (31, -1.48806420898437500000e+03) (32, 8.36875057220458984375e+00) (33, -1.28212561035156250000e+03) (34, 1.25879173278808593750e+01) (35, 5.94997924804687500000e+02) (36, -1.48782739257812500000e+03) (37, -1.45445715332031250000e+03) (38, -7.05417861938476562500e+01) (39, -5.05696350097656250000e+02) (40, -5.05696350097656250000e+02) (41, -5.05696350097656250000e+02) (42, -5.05696350097656250000e+02) (43, -5.05696350097656250000e+02) (44, -5.05696350097656250000e+02) (45, -5.05696350097656250000e+02) (46, -5.05696350097656250000e+02) (47, -5.05696350097656250000e+02) (48, -5.05696350097656250000e+02) (49, -5.05696350097656250000e+02) (50, -5.05696350097656250000e+02) (51, -5.05696350097656250000e+02) (52, -5.05696350097656250000e+02) (53, -5.05696350097656250000e+02) (54, -5.05696350097656250000e+02) (55, -5.05696350097656250000e+02) (56, -5.05696350097656250000e+02) (57, -5.05696350097656250000e+02) (58, 1.38849145507812500000e+03) (59, -5.05696350097656250000e+02) (60, -5.05696350097656250000e+02) (61, -5.05696350097656250000e+02) (62, -5.05696350097656250000e+02) (63, -5.05696350097656250000e+02) (64, -5.05696350097656250000e+02) (65, -5.05696350097656250000e+02) (66, -5.05696350097656250000e+02) (67, -5.05696350097656250000e+02) (68, -5.05696350097656250000e+02) (69, -5.05696350097656250000e+02) (70, -5.11931335449218750000e+02) (39, -1.17489392089843750000e+03) (40, -1.17489392089843750000e+03) (41, -1.17489392089843750000e+03) (42, -1.17489392089843750000e+03) (43, -1.17489392089843750000e+03) (44, -1.17489392089843750000e+03) (45, -1.17489392089843750000e+03) (46, -1.17489392089843750000e+03) (47, -1.17489392089843750000e+03) (48, -1.17489392089843750000e+03) (49, -1.17489392089843750000e+03) (50, -1.17489392089843750000e+03) (51, -1.17489392089843750000e+03) (52, -1.17489392089843750000e+03) (53, -1.17489392089843750000e+03) (54, -1.17489392089843750000e+03) (55, -1.17489392089843750000e+03) (56, -1.17489392089843750000e+03) (57, -1.17489392089843750000e+03) (58, 1.49999987792968750000e+03) (59, -1.17489392089843750000e+03) (60, -1.17489392089843750000e+03) (61, -1.17489392089843750000e+03) (62, -1.17489392089843750000e+03) (63, -1.17489392089843750000e+03) (64, -1.17489392089843750000e+03) (65, -1.17489392089843750000e+03) (66, -1.17489392089843750000e+03) (67, -1.17489392089843750000e+03) (68, -1.17489392089843750000e+03) (69, -1.17489392089843750000e+03) (70, -1.37091723632812500000e+03) (39, 2.00433959960937500000e+01) (40, 2.00433959960937500000e+01) (41, 2.00433959960937500000e+01) (42, 2.00433959960937500000e+01) (43, 2.00433959960937500000e+01) (44, 2.00433959960937500000e+01) (45, 2.00433959960937500000e+01) (46, 2.00433959960937500000e+01) (47, 2.00433959960937500000e+01) (48, 2.00433959960937500000e+01) (49, 2.00433959960937500000e+01) (50, 2.00433959960937500000e+01) (51, 2.00433959960937500000e+01) (52, 2.00433959960937500000e+01) (53, 2.00433959960937500000e+01) (54, 2.00433959960937500000e+01) (55, 2.00433959960937500000e+01) (56, 2.00433959960937500000e+01) (57, 2.00433959960937500000e+01) (58, 5.86285339355468750000e+02) (59, 2.00433959960937500000e+01) (60, 2.00433959960937500000e+01) (61, 2.00433959960937500000e+01) (62, 2.00433959960937500000e+01) (63, 2.00433959960937500000e+01) (64, 2.00433959960937500000e+01) (65, 2.00433959960937500000e+01) (66, 2.00433959960937500000e+01) (67, 2.00433959960937500000e+01) (68, 2.00433959960937500000e+01) (69, 2.00433959960937500000e+01) (70, 2.17904586791992187500e+01) (39, -1.87501998901367187500e+02) (40, -1.87501998901367187500e+02) (41, -1.87501998901367187500e+02) (42, -1.87501998901367187500e+02) (43, -1.87501998901367187500e+02) (44, -1.87501998901367187500e+02) (45, -1.87501998901367187500e+02) (46, -1.87501998901367187500e+02) (47, -1.87501998901367187500e+02) (48, -1.87501998901367187500e+02) (49, -1.87501998901367187500e+02) (50, -1.87501998901367187500e+02) (51, -1.87501998901367187500e+02) (52, -1.87501998901367187500e+02) (53, -1.87501998901367187500e+02) (54, -1.87501998901367187500e+02) (55, -1.87501998901367187500e+02) (56, -1.87501998901367187500e+02) (57, -1.87501998901367187500e+02) (58, 8.84071044921875000000e+02) (59, -1.87501998901367187500e+02) (60, -1.87501998901367187500e+02) (61, -1.87501998901367187500e+02) (62, -1.87501998901367187500e+02) (63, -1.87501998901367187500e+02) (64, -1.87501998901367187500e+02) (65, -1.87501998901367187500e+02) (66, -1.87501998901367187500e+02) (67, -1.87501998901367187500e+02) (68, -1.87501998901367187500e+02) (69, -1.87501998901367187500e+02) (70, -1.90727005004882812500e+02) (39, 1.36852111816406250000e+03) (40, 1.36852111816406250000e+03) (41, 1.36852111816406250000e+03) (42, 1.36852111816406250000e+03) (43, 1.36852111816406250000e+03) (44, 1.36852111816406250000e+03) (45, 1.36852111816406250000e+03) (46, 1.36852111816406250000e+03) (47, 1.36852111816406250000e+03) (48, 1.36852111816406250000e+03) (49, 1.36852111816406250000e+03) (50, 1.36852111816406250000e+03) (51, 1.36852111816406250000e+03) (52, 1.36852111816406250000e+03) (53, 1.36852111816406250000e+03) (54, 1.36852111816406250000e+03) (55, 1.36852111816406250000e+03) (56, 1.36852111816406250000e+03) (57, 1.36852111816406250000e+03) (58, -1.26583703613281250000e+03) (59, 1.36852111816406250000e+03) (60, 1.36852111816406250000e+03) (61, 1.36852111816406250000e+03) (62, 1.36852111816406250000e+03) (63, 1.36852111816406250000e+03) (64, 1.36852111816406250000e+03) (65, 1.36852111816406250000e+03) (66, 1.36852111816406250000e+03) (67, 1.36852111816406250000e+03) (68, 1.36852111816406250000e+03) (69, 1.36852111816406250000e+03) (70, 1.49984619140625000000e+03) (39, -1.87457382202148437500e+02) (40, -1.87457382202148437500e+02) (41, -1.87457382202148437500e+02) (42, -1.87457382202148437500e+02) (43, -1.87457382202148437500e+02) (44, -1.87457382202148437500e+02) (45, -1.87457382202148437500e+02) (46, -1.87457382202148437500e+02) (47, -1.87457382202148437500e+02) (48, -1.87457382202148437500e+02) (49, -1.87457382202148437500e+02) (50, -1.87457382202148437500e+02) (51, -1.87457382202148437500e+02) (52, -1.87457382202148437500e+02) (53, -1.87457382202148437500e+02) (54, -1.87457382202148437500e+02) (55, -1.87457382202148437500e+02) (56, -1.87457382202148437500e+02) (57, -1.87457382202148437500e+02) (58, 8.84013549804687500000e+02) (59, -1.87457382202148437500e+02) (60, -1.87457382202148437500e+02) (61, -1.87457382202148437500e+02) (62, -1.87457382202148437500e+02) (63, -1.87457382202148437500e+02) (64, -1.87457382202148437500e+02) (65, -1.87457382202148437500e+02) (66, -1.87457382202148437500e+02) (67, -1.87457382202148437500e+02) (68, -1.87457382202148437500e+02) (69, -1.87457382202148437500e+02) (70, -1.90682388305664062500e+02) (39, -1.43166796875000000000e+03) (40, -1.43166796875000000000e+03) (41, -1.43166796875000000000e+03) (42, -1.43166796875000000000e+03) (43, -1.43166796875000000000e+03) (44, -1.43166796875000000000e+03) (45, -1.43166796875000000000e+03) (46, -1.43166796875000000000e+03) (47, -1.43166796875000000000e+03) (48, -1.43166796875000000000e+03) (49, -1.43166796875000000000e+03) (50, -1.43166796875000000000e+03) (51, -1.43166796875000000000e+03) (52, -1.43166796875000000000e+03) (53, -1.43166796875000000000e+03) (54, -1.43166796875000000000e+03) (55, -1.43166796875000000000e+03) (56, -1.43166796875000000000e+03) (57, -1.43166796875000000000e+03) (58, 1.49999987792968750000e+03) (59, -1.43166796875000000000e+03) (60, -1.43166796875000000000e+03) (61, -1.43166796875000000000e+03) (62, -1.43166796875000000000e+03) (63, -1.43166796875000000000e+03) (64, -1.43166796875000000000e+03) (65, -1.43166796875000000000e+03) (66, -1.43166796875000000000e+03) (67, -1.43166796875000000000e+03) (68, -1.43166796875000000000e+03) (69, -1.43166796875000000000e+03) (70, -1.43348059082031250000e+03) (39, 2.64976596832275390625e+01) (40, 2.64976596832275390625e+01) (41, 2.64976596832275390625e+01) (42, 2.64976596832275390625e+01) (43, 2.64976596832275390625e+01) (44, 2.64976596832275390625e+01) (45, 2.64976596832275390625e+01) (46, 2.64976596832275390625e+01) (47, 2.64976596832275390625e+01) (48, 2.64976596832275390625e+01) (49, 2.64976596832275390625e+01) (50, 2.64976596832275390625e+01) (51, 2.64976596832275390625e+01) (52, 2.64976596832275390625e+01) (53, 2.64976596832275390625e+01) (54, 2.64976596832275390625e+01) (55, 2.64976596832275390625e+01) (56, 2.64976596832275390625e+01) (57, 2.64976596832275390625e+01) (58, 5.82638000488281250000e+02) (59, 2.64976596832275390625e+01) (60, 2.64976596832275390625e+01) (61, 2.64976596832275390625e+01) (62, 2.64976596832275390625e+01) (63, 2.64976596832275390625e+01) (64, 2.64976596832275390625e+01) (65, 2.64976596832275390625e+01) (66, 2.64976596832275390625e+01) (67, 2.64976596832275390625e+01) (68, 2.64976596832275390625e+01) (69, 2.64976596832275390625e+01) (70, 2.02813243865966796875e+01) (39, 5.16896423339843750000e+02) (40, 5.16896423339843750000e+02) (41, 5.16896423339843750000e+02) (42, 5.16896423339843750000e+02) (43, 5.16896423339843750000e+02) (44, 5.16896423339843750000e+02) (45, 5.16896423339843750000e+02) (46, 5.16896423339843750000e+02) (47, 5.16896423339843750000e+02) (48, 5.16896423339843750000e+02) (49, 5.16896423339843750000e+02) (50, 5.16896423339843750000e+02) (51, 5.16896423339843750000e+02) (52, 5.16896423339843750000e+02) (53, 5.16896423339843750000e+02) (54, 5.16896423339843750000e+02) (55, 5.16896423339843750000e+02) (56, 5.16896423339843750000e+02) (57, 5.16896423339843750000e+02) (58, -2.75891815185546875000e+02) (59, 5.16896423339843750000e+02) (60, 5.16896423339843750000e+02) (61, 5.16896423339843750000e+02) (62, 5.16896423339843750000e+02) (63, 5.16896423339843750000e+02) (64, 5.16896423339843750000e+02) (65, 5.16896423339843750000e+02) (66, 5.16896423339843750000e+02) (67, 5.16896423339843750000e+02) (68, 5.16896423339843750000e+02) (69, 5.16896423339843750000e+02) (70, 5.17333801269531250000e+02) (39, 2.65098133087158203125e+01) (40, 2.65098133087158203125e+01) (41, 2.65098133087158203125e+01) (42, 2.65098133087158203125e+01) (43, 2.65098133087158203125e+01) (44, 2.65098133087158203125e+01) (45, 2.65098133087158203125e+01) (46, 2.65098133087158203125e+01) (47, 2.65098133087158203125e+01) (48, 2.65098133087158203125e+01) (49, 2.65098133087158203125e+01) (50, 2.65098133087158203125e+01) (51, 2.65098133087158203125e+01) (52, 2.65098133087158203125e+01) (53, 2.65098133087158203125e+01) (54, 2.65098133087158203125e+01) (55, 2.65098133087158203125e+01) (56, 2.65098133087158203125e+01) (57, 2.65098133087158203125e+01) (58, 5.82625183105468750000e+02) (59, 2.65098133087158203125e+01) (60, 2.65098133087158203125e+01) (61, 2.65098133087158203125e+01) (62, 2.65098133087158203125e+01) (63, 2.65098133087158203125e+01) (64, 2.65098133087158203125e+01) (65, 2.65098133087158203125e+01) (66, 2.65098133087158203125e+01) (67, 2.65098133087158203125e+01) (68, 2.65098133087158203125e+01) (69, 2.65098133087158203125e+01) (70, 2.02934780120849609375e+01) (39, 3.14282283782958984375e+01) (40, 3.14282283782958984375e+01) (41, 3.14282283782958984375e+01) (42, 3.14282283782958984375e+01) (43, 3.14282283782958984375e+01) (44, 3.14282283782958984375e+01) (45, 3.14282283782958984375e+01) (46, 3.14282283782958984375e+01) (47, 3.14282283782958984375e+01) (48, 3.14282283782958984375e+01) (49, 3.14282283782958984375e+01) (50, 3.14282283782958984375e+01) (51, 3.14282283782958984375e+01) (52, 3.14282283782958984375e+01) (53, 3.14282283782958984375e+01) (54, 3.14282283782958984375e+01) (55, 3.14282283782958984375e+01) (56, 3.14282283782958984375e+01) (57, 3.14282283782958984375e+01) (58, 5.75489807128906250000e+02) (59, 3.14282283782958984375e+01) (60, 3.14282283782958984375e+01) (61, 3.14282283782958984375e+01) (62, 3.14282283782958984375e+01) (63, 3.14282283782958984375e+01) (64, 3.14282283782958984375e+01) (65, 3.14282283782958984375e+01) (66, 3.14282283782958984375e+01) (67, 3.14282283782958984375e+01) (68, 3.14282283782958984375e+01) (69, 3.14282283782958984375e+01) (70, 2.52118930816650390625e+01) (39, -5.82059574127197265625e+00) (40, -5.82059574127197265625e+00) (41, -5.82059574127197265625e+00) (42, -5.82059574127197265625e+00) (43, -5.82059574127197265625e+00) (44, -5.82059574127197265625e+00) (45, -5.82059574127197265625e+00) (46, -5.82059574127197265625e+00) (47, -5.82059574127197265625e+00) (48, -5.82059574127197265625e+00) (49, -5.82059574127197265625e+00) (50, -5.82059574127197265625e+00) (51, -5.82059574127197265625e+00) (52, -5.82059574127197265625e+00) (53, -5.82059574127197265625e+00) (54, -5.82059574127197265625e+00) (55, -5.82059574127197265625e+00) (56, -5.82059574127197265625e+00) (57, -5.82059574127197265625e+00) (58, 6.32817932128906250000e+02) (59, -5.82059574127197265625e+00) (60, -5.82059574127197265625e+00) (61, -5.82059574127197265625e+00) (62, -5.82059574127197265625e+00) (63, -5.82059574127197265625e+00) (64, -5.82059574127197265625e+00) (65, -5.82059574127197265625e+00) (66, -5.82059574127197265625e+00) (67, -5.82059574127197265625e+00) (68, -5.82059574127197265625e+00) (69, -5.82059574127197265625e+00) (70, -9.04461669921875000000e+00) (39, 3.14590511322021484375e+01) (40, 3.14590511322021484375e+01) (41, 3.14590511322021484375e+01) (42, 3.14590511322021484375e+01) (43, 3.14590511322021484375e+01) (44, 3.14590511322021484375e+01) (45, 3.14590511322021484375e+01) (46, 3.14590511322021484375e+01) (47, 3.14590511322021484375e+01) (48, 3.14590511322021484375e+01) (49, 3.14590511322021484375e+01) (50, 3.14590511322021484375e+01) (51, 3.14590511322021484375e+01) (52, 3.14590511322021484375e+01) (53, 3.14590511322021484375e+01) (54, 3.14590511322021484375e+01) (55, 3.14590511322021484375e+01) (56, 3.14590511322021484375e+01) (57, 3.14590511322021484375e+01) (58, 5.75447082519531250000e+02) (59, 3.14590511322021484375e+01) (60, 3.14590511322021484375e+01) (61, 3.14590511322021484375e+01) (62, 3.14590511322021484375e+01) (63, 3.14590511322021484375e+01) (64, 3.14590511322021484375e+01) (65, 3.14590511322021484375e+01) (66, 3.14590511322021484375e+01) (67, 3.14590511322021484375e+01) (68, 3.14590511322021484375e+01) (69, 3.14590511322021484375e+01) (70, 2.52427120208740234375e+01) (39, 3.14504222869873046875e+01) (40, 3.14504222869873046875e+01) (41, 3.14504222869873046875e+01) (42, 3.14504222869873046875e+01) (43, 3.14504222869873046875e+01) (44, 3.14504222869873046875e+01) (45, 3.14504222869873046875e+01) (46, 3.14504222869873046875e+01) (47, 3.14504222869873046875e+01) (48, 3.14504222869873046875e+01) (49, 3.14504222869873046875e+01) (50, 3.14504222869873046875e+01) (51, 3.14504222869873046875e+01) (52, 3.14504222869873046875e+01) (53, 3.14504222869873046875e+01) (54, 3.14504222869873046875e+01) (55, 3.14504222869873046875e+01) (56, 3.14504222869873046875e+01) (57, 3.14504222869873046875e+01) (58, 5.75457885742187500000e+02) (59, 3.14504222869873046875e+01) (60, 3.14504222869873046875e+01) (61, 3.14504222869873046875e+01) (62, 3.14504222869873046875e+01) (63, 3.14504222869873046875e+01) (64, 3.14504222869873046875e+01) (65, 3.14504222869873046875e+01) (66, 3.14504222869873046875e+01) (67, 3.14504222869873046875e+01) (68, 3.14504222869873046875e+01) (69, 3.14504222869873046875e+01) (70, 2.52340831756591796875e+01) (39, 2.00429573059082031250e+01) (40, 2.00429573059082031250e+01) (41, 2.00429573059082031250e+01) (42, 2.00429573059082031250e+01) (43, 2.00429573059082031250e+01) (44, 2.00429573059082031250e+01) (45, 2.00429573059082031250e+01) (46, 2.00429573059082031250e+01) (47, 2.00429573059082031250e+01) (48, 2.00429573059082031250e+01) (49, 2.00429573059082031250e+01) (50, 2.00429573059082031250e+01) (51, 2.00429573059082031250e+01) (52, 2.00429573059082031250e+01) (53, 2.00429573059082031250e+01) (54, 2.00429573059082031250e+01) (55, 2.00429573059082031250e+01) (56, 2.00429573059082031250e+01) (57, 2.00429573059082031250e+01) (58, 5.86285644531250000000e+02) (59, 2.00429573059082031250e+01) (60, 2.00429573059082031250e+01) (61, 2.00429573059082031250e+01) (62, 2.00429573059082031250e+01) (63, 2.00429573059082031250e+01) (64, 2.00429573059082031250e+01) (65, 2.00429573059082031250e+01) (66, 2.00429573059082031250e+01) (67, 2.00429573059082031250e+01) (68, 2.00429573059082031250e+01) (69, 2.00429573059082031250e+01) (70, 2.17900199890136718750e+01) (39, -5.48299194335937500000e+02) (40, -5.48299194335937500000e+02) (41, -5.48299194335937500000e+02) (42, -5.48299194335937500000e+02) (43, -5.48299194335937500000e+02) (44, -5.48299194335937500000e+02) (45, -5.48299194335937500000e+02) (46, -5.48299194335937500000e+02) (47, -5.48299194335937500000e+02) (48, -5.48299194335937500000e+02) (49, -5.48299194335937500000e+02) (50, -5.48299194335937500000e+02) (51, -5.48299194335937500000e+02) (52, -5.48299194335937500000e+02) (53, -5.48299194335937500000e+02) (54, -5.48299194335937500000e+02) (55, -5.48299194335937500000e+02) (56, -5.48299194335937500000e+02) (57, -5.48299194335937500000e+02) (58, 1.49979589843750000000e+03) (59, -5.48299194335937500000e+02) (60, -5.48299194335937500000e+02) (61, -5.48299194335937500000e+02) (62, -5.48299194335937500000e+02) (63, -5.48299194335937500000e+02) (64, -5.48299194335937500000e+02) (65, -5.48299194335937500000e+02) (66, -5.48299194335937500000e+02) (67, -5.48299194335937500000e+02) (68, -5.48299194335937500000e+02) (69, -5.48299194335937500000e+02) (70, -1.35171972656250000000e+03) (39, 1.96727638244628906250e+01) (40, 1.96727638244628906250e+01) (41, 1.96727638244628906250e+01) (42, 1.96727638244628906250e+01) (43, 1.96727638244628906250e+01) (44, 1.96727638244628906250e+01) (45, 1.96727638244628906250e+01) (46, 1.96727638244628906250e+01) (47, 1.96727638244628906250e+01) (48, 1.96727638244628906250e+01) (49, 1.96727638244628906250e+01) (50, 1.96727638244628906250e+01) (51, 1.96727638244628906250e+01) (52, 1.96727638244628906250e+01) (53, 1.96727638244628906250e+01) (54, 1.96727638244628906250e+01) (55, 1.96727638244628906250e+01) (56, 1.96727638244628906250e+01) (57, 1.96727638244628906250e+01) (58, 5.49257873535156250000e+02) (59, 1.96727638244628906250e+01) (60, 1.96727638244628906250e+01) (61, 1.96727638244628906250e+01) (62, 1.96727638244628906250e+01) (63, 1.96727638244628906250e+01) (64, 1.96727638244628906250e+01) (65, 1.96727638244628906250e+01) (66, 1.96727638244628906250e+01) (67, 1.96727638244628906250e+01) (68, 1.96727638244628906250e+01) (69, 1.96727638244628906250e+01) (70, 1.93636856079101562500e+01) (39, 3.14118366241455078125e+01) (40, 3.14118366241455078125e+01) (41, 3.14118366241455078125e+01) (42, 3.14118366241455078125e+01) (43, 3.14118366241455078125e+01) (44, 3.14118366241455078125e+01) (45, 3.14118366241455078125e+01) (46, 3.14118366241455078125e+01) (47, 3.14118366241455078125e+01) (48, 3.14118366241455078125e+01) (49, 3.14118366241455078125e+01) (50, 3.14118366241455078125e+01) (51, 3.14118366241455078125e+01) (52, 3.14118366241455078125e+01) (53, 3.14118366241455078125e+01) (54, 3.14118366241455078125e+01) (55, 3.14118366241455078125e+01) (56, 3.14118366241455078125e+01) (57, 3.14118366241455078125e+01) (58, 5.75505920410156250000e+02) (59, 3.14118366241455078125e+01) (60, 3.14118366241455078125e+01) (61, 3.14118366241455078125e+01) (62, 3.14118366241455078125e+01) (63, 3.14118366241455078125e+01) (64, 3.14118366241455078125e+01) (65, 3.14118366241455078125e+01) (66, 3.14118366241455078125e+01) (67, 3.14118366241455078125e+01) (68, 3.14118366241455078125e+01) (69, 3.14118366241455078125e+01) (70, 2.51955013275146484375e+01) (39, 3.14521770477294921875e+01) (40, 3.14521770477294921875e+01) (41, 3.14521770477294921875e+01) (42, 3.14521770477294921875e+01) (43, 3.14521770477294921875e+01) (44, 3.14521770477294921875e+01) (45, 3.14521770477294921875e+01) (46, 3.14521770477294921875e+01) (47, 3.14521770477294921875e+01) (48, 3.14521770477294921875e+01) (49, 3.14521770477294921875e+01) (50, 3.14521770477294921875e+01) (51, 3.14521770477294921875e+01) (52, 3.14521770477294921875e+01) (53, 3.14521770477294921875e+01) (54, 3.14521770477294921875e+01) (55, 3.14521770477294921875e+01) (56, 3.14521770477294921875e+01) (57, 3.14521770477294921875e+01) (58, 5.75456970214843750000e+02) (59, 3.14521770477294921875e+01) (60, 3.14521770477294921875e+01) (61, 3.14521770477294921875e+01) (62, 3.14521770477294921875e+01) (63, 3.14521770477294921875e+01) (64, 3.14521770477294921875e+01) (65, 3.14521770477294921875e+01) (66, 3.14521770477294921875e+01) (67, 3.14521770477294921875e+01) (68, 3.14521770477294921875e+01) (69, 3.14521770477294921875e+01) (70, 2.52358379364013671875e+01) (39, 3.14232273101806640625e+01) (40, 3.14232273101806640625e+01) (41, 3.14232273101806640625e+01) (42, 3.14232273101806640625e+01) (43, 3.14232273101806640625e+01) (44, 3.14232273101806640625e+01) (45, 3.14232273101806640625e+01) (46, 3.14232273101806640625e+01) (47, 3.14232273101806640625e+01) (48, 3.14232273101806640625e+01) (49, 3.14232273101806640625e+01) (50, 3.14232273101806640625e+01) (51, 3.14232273101806640625e+01) (52, 3.14232273101806640625e+01) (53, 3.14232273101806640625e+01) (54, 3.14232273101806640625e+01) (55, 3.14232273101806640625e+01) (56, 3.14232273101806640625e+01) (57, 3.14232273101806640625e+01) (58, 5.75494384765625000000e+02) (59, 3.14232273101806640625e+01) (60, 3.14232273101806640625e+01) (61, 3.14232273101806640625e+01) (62, 3.14232273101806640625e+01) (63, 3.14232273101806640625e+01) (64, 3.14232273101806640625e+01) (65, 3.14232273101806640625e+01) (66, 3.14232273101806640625e+01) (67, 3.14232273101806640625e+01) (68, 3.14232273101806640625e+01) (69, 3.14232273101806640625e+01) (70, 2.52068920135498046875e+01) (39, 5.16859436035156250000e+02) (40, 5.16859436035156250000e+02) (41, 5.16859436035156250000e+02) (42, 5.16859436035156250000e+02) (43, 5.16859436035156250000e+02) (44, 5.16859436035156250000e+02) (45, 5.16859436035156250000e+02) (46, 5.16859436035156250000e+02) (47, 5.16859436035156250000e+02) (48, 5.16859436035156250000e+02) (49, 5.16859436035156250000e+02) (50, 5.16859436035156250000e+02) (51, 5.16859436035156250000e+02) (52, 5.16859436035156250000e+02) (53, 5.16859436035156250000e+02) (54, 5.16859436035156250000e+02) (55, 5.16859436035156250000e+02) (56, 5.16859436035156250000e+02) (57, 5.16859436035156250000e+02) (58, -2.75837951660156250000e+02) (59, 5.16859436035156250000e+02) (60, 5.16859436035156250000e+02) (61, 5.16859436035156250000e+02) (62, 5.16859436035156250000e+02) (63, 5.16859436035156250000e+02) (64, 5.16859436035156250000e+02) (65, 5.16859436035156250000e+02) (66, 5.16859436035156250000e+02) (67, 5.16859436035156250000e+02) (68, 5.16859436035156250000e+02) (69, 5.16859436035156250000e+02) (70, 5.17281799316406250000e+02) (39, -1.87493423461914062500e+02) (40, -1.87493423461914062500e+02) (41, -1.87493423461914062500e+02) (42, -1.87493423461914062500e+02) (43, -1.87493423461914062500e+02) (44, -1.87493423461914062500e+02) (45, -1.87493423461914062500e+02) (46, -1.87493423461914062500e+02) (47, -1.87493423461914062500e+02) (48, -1.87493423461914062500e+02) (49, -1.87493423461914062500e+02) (50, -1.87493423461914062500e+02) (51, -1.87493423461914062500e+02) (52, -1.87493423461914062500e+02) (53, -1.87493423461914062500e+02) (54, -1.87493423461914062500e+02) (55, -1.87493423461914062500e+02) (56, -1.87493423461914062500e+02) (57, -1.87493423461914062500e+02) (58, 8.84058898925781250000e+02) (59, -1.87493423461914062500e+02) (60, -1.87493423461914062500e+02) (61, -1.87493423461914062500e+02) (62, -1.87493423461914062500e+02) (63, -1.87493423461914062500e+02) (64, -1.87493423461914062500e+02) (65, -1.87493423461914062500e+02) (66, -1.87493423461914062500e+02) (67, -1.87493423461914062500e+02) (68, -1.87493423461914062500e+02) (69, -1.87493423461914062500e+02) (70, -1.90718429565429687500e+02) (39, 1.25769384765625000000e+03) (40, 1.25769384765625000000e+03) (41, 1.25769384765625000000e+03) (42, 1.25769384765625000000e+03) (43, 1.25769384765625000000e+03) (44, 1.25769384765625000000e+03) (45, 1.25769384765625000000e+03) (46, 1.25769384765625000000e+03) (47, 1.25769384765625000000e+03) (48, 1.25769384765625000000e+03) (49, 1.25769384765625000000e+03) (50, 1.25769384765625000000e+03) (51, 1.25769384765625000000e+03) (52, 1.25769384765625000000e+03) (53, 1.25769384765625000000e+03) (54, 1.25769384765625000000e+03) (55, 1.25769384765625000000e+03) (56, 1.25769384765625000000e+03) (57, 1.25769384765625000000e+03) (58, -9.82382263183593750000e+02) (59, 1.25769384765625000000e+03) (60, 1.25769384765625000000e+03) (61, 1.25769384765625000000e+03) (62, 1.25769384765625000000e+03) (63, 1.25769384765625000000e+03) (64, 1.25769384765625000000e+03) (65, 1.25769384765625000000e+03) (66, 1.25769384765625000000e+03) (67, 1.25769384765625000000e+03) (68, 1.25769384765625000000e+03) (69, 1.25769384765625000000e+03) (70, 1.23733117675781250000e+03) (39, 2.64754505157470703125e+01) (40, 2.64754505157470703125e+01) (41, 2.64754505157470703125e+01) (42, 2.64754505157470703125e+01) (43, 2.64754505157470703125e+01) (44, 2.64754505157470703125e+01) (45, 2.64754505157470703125e+01) (46, 2.64754505157470703125e+01) (47, 2.64754505157470703125e+01) (48, 2.64754505157470703125e+01) (49, 2.64754505157470703125e+01) (50, 2.64754505157470703125e+01) (51, 2.64754505157470703125e+01) (52, 2.64754505157470703125e+01) (53, 2.64754505157470703125e+01) (54, 2.64754505157470703125e+01) (55, 2.64754505157470703125e+01) (56, 2.64754505157470703125e+01) (57, 2.64754505157470703125e+01) (58, 5.82672668457031250000e+02) (59, 2.64754505157470703125e+01) (60, 2.64754505157470703125e+01) (61, 2.64754505157470703125e+01) (62, 2.64754505157470703125e+01) (63, 2.64754505157470703125e+01) (64, 2.64754505157470703125e+01) (65, 2.64754505157470703125e+01) (66, 2.64754505157470703125e+01) (67, 2.64754505157470703125e+01) (68, 2.64754505157470703125e+01) (69, 2.64754505157470703125e+01) (70, 2.02591152191162109375e+01) (71, 2.44335174560546875000e+00) (72, 2.45022249221801757812e+00) (73, 4.21935089111328125000e+02) (74, 2.59524965286254882812e+00) (75, 4.43280076980590820312e+00) (76, 3.27180838584899902344e+00) (77, 2.65283298492431640625e+00) (78, 2.41597151756286621094e+00) (79, 3.76217269897460937500e+00) (80, 1.69182729721069335938e+00) (81, 2.66912102699279785156e+00) (82, 1.19846951961517333984e+00) (83, 2.47076988220214843750e+00) (84, 2.31142520904541015625e+00) (85, 4.21933715820312500000e+02) (86, 2.61175775527954101562e+00) (87, 2.50393366813659667969e+00) (88, 2.23904871940612792969e+00) (89, 2.57790541648864746094e+00) (90, 3.21118330955505371094e+00) (91, 4.12933778762817382812e+00) (92, 2.68319320678710937500e+00) (93, 2.37943220138549804688e+00) (94, 2.77477765083312988281e+00) (95, 5.32626962661743164062e+00) (71, -6.72057495117187500000e+01) (72, 1.60488723754882812500e+02) (73, 2.55184001922607421875e+01) (74, -9.73244781494140625000e+01) (75, 1.60438766479492187500e+02) (76, -9.74597930908203125000e+01) (77, 8.38411010742187500000e+02) (78, -9.65588684082031250000e+01) (79, -5.98567962646484375000e+01) (80, -9.64042510986328125000e+01) (81, -9.54340133666992187500e+01) (82, -1.01758872985839843750e+02) (83, -9.50656204223632812500e+01) (84, -9.62262954711914062500e+01) (85, 2.53971080780029296875e+01) (86, 7.21643859863281250000e+02) (87, -9.52797012329101562500e+01) (88, -9.57210006713867187500e+01) (89, -9.52642135620117187500e+01) (90, -9.52154769897460937500e+01) (91, -1.09257156372070312500e+02) (92, -9.69230957031250000000e+01) (93, -6.64646835327148437500e+01) (94, -9.67227172851562500000e+01) (95, -9.13689651489257812500e+01) (71, 3.51061892509460449219e+00) (72, 3.98327445983886718750e+00) (73, 1.17097694396972656250e+02) (74, 4.58583974838256835938e+00) (75, 9.68553256988525390625e+00) (76, 4.63744306564331054688e+00) (77, 3.69796442985534667969e+00) (78, 4.23243951797485351562e+00) (79, 8.85073280334472656250e+00) (80, 3.80971431732177734375e+00) (81, 4.78795146942138671875e+00) (82, -1.20094024658203125000e+02) (83, 4.32220649719238281250e+00) (84, 4.00334310531616210938e+00) (85, 1.17090782165527343750e+02) (86, 3.91390347480773925781e+00) (87, 4.61899662017822265625e+00) (88, 4.19220447540283203125e+00) (89, 4.92489624023437500000e+00) (90, 4.91923427581787109375e+00) (91, 1.01780424118041992188e+01) (92, 4.56701517105102539062e+00) (93, 4.23365449905395507812e+00) (94, 4.16785478591918945312e+00) (95, 2.23860763549804687500e+02) (71, -1.40610754394531250000e+03) (72, -1.40601989746093750000e+03) (73, -1.27275952148437500000e+03) (74, -1.40405358886718750000e+03) (75, 1.49708068847656250000e+03) (76, -1.40405358886718750000e+03) (77, -1.40603088378906250000e+03) (78, -1.39503540039062500000e+03) (79, 1.49698315429687500000e+03) (80, -1.39503540039062500000e+03) (81, -1.39490417480468750000e+03) (82, -1.49793701171875000000e+03) (83, -1.39490417480468750000e+03) (84, -1.39490417480468750000e+03) (85, -1.27275952148437500000e+03) (86, -1.40603186035156250000e+03) (87, -1.39457983398437500000e+03) (88, -1.39490417480468750000e+03) (89, -1.39490417480468750000e+03) (90, -1.39490417480468750000e+03) (91, 1.49703247070312500000e+03) (92, -1.40405358886718750000e+03) (93, -1.39490417480468750000e+03) (94, -1.39503540039062500000e+03) (95, -1.17295007324218750000e+03) (71, 3.19157066345214843750e+01) (72, 3.24310264587402343750e+01) (73, 9.77636260986328125000e+01) (74, 3.41051254272460937500e+01) (75, -6.32932424545288085938e+00) (76, 3.44521484375000000000e+01) (77, 3.24389495849609375000e+01) (78, -7.13413953781127929688e+00) (79, -7.03324174880981445312e+00) (80, -6.91505765914916992188e+00) (81, -7.09563302993774414062e+00) (82, -1.34850601196289062500e+02) (83, -7.17064714431762695312e+00) (84, -6.89277505874633789062e+00) (85, 9.76995086669921875000e+01) (86, 3.24576416015625000000e+01) (87, -6.47213506698608398438e+00) (88, -7.09662008285522460938e+00) (89, -7.18074274063110351562e+00) (90, -7.40848779678344726562e+00) (91, -6.37552118301391601562e+00) (92, 3.41921043395996093750e+01) (93, -7.14642858505249023438e+00) (94, -7.15743494033813476562e+00) (95, 3.26391937255859375000e+02) (71, -3.03397922515869140625e+01) (72, 1.13201789855957031250e+02) (73, 7.85486679077148437500e+01) (74, -2.85204334259033203125e+01) (75, 5.84445762634277343750e+01) (76, -3.04268627166748046875e+01) (77, -7.99586200714111328125e+00) (78, -3.76944541931152343750e+01) (79, 5.02515983581542968750e+01) (80, -3.82929878234863281250e+01) (81, -3.83561325073242187500e+01) (82, -3.95206604003906250000e+01) (83, -3.85824356079101562500e+01) (84, -3.79217185974121093750e+01) (85, 7.86529159545898437500e+01) (86, -5.76836433410644531250e+01) (87, -3.08615474700927734375e+01) (88, -3.78742523193359375000e+01) (89, -3.86895866394042968750e+01) (90, -3.79524078369140625000e+01) (91, 4.94057693481445312500e+01) (92, -3.01634159088134765625e+01) (93, -4.32329063415527343750e+01) (94, -3.87709312438964843750e+01) (95, -2.31385860443115234375e+01) (71, -5.01773872375488281250e+01) (72, 3.05462097167968750000e+02) (73, 7.30117340087890625000e+01) (74, -4.90937767028808593750e+01) (75, 8.33580627441406250000e+01) (76, -5.02141532897949218750e+01) (77, -5.46250953674316406250e+01) (78, -5.01436805725097656250e+01) (79, 8.60176162719726562500e+01) (80, -4.95206489562988281250e+01) (81, -5.00400962829589843750e+01) (82, -5.38126182556152343750e+01) (83, -5.02475318908691406250e+01) (84, -4.94624481201171875000e+01) (85, 7.29890594482421875000e+01) (86, -5.16751098632812500000e+01) (87, -4.92890892028808593750e+01) (88, -4.88348884582519531250e+01) (89, -5.00130729675292968750e+01) (90, -5.00237464904785156250e+01) (91, 8.40941925048828125000e+01) (92, -4.89169311523437500000e+01) (93, -4.11852569580078125000e+02) (94, -4.98625450134277343750e+01) (95, -4.40226135253906250000e+01) (71, 8.23719406127929687500e+00) (72, 6.74758911132812500000e+00) (73, 1.17693519592285156250e+02) (74, 9.28552913665771484375e+00) (75, 6.83582401275634765625e+00) (76, 8.95106410980224609375e+00) (77, 3.03472785949707031250e+01) (78, 2.02221822738647460938e+00) (79, 3.54712753295898437500e+01) (80, 1.75475549697875976562e+00) (81, 1.98609519004821777344e+00) (82, 5.90241956710815429688e+00) (83, 1.85734462738037109375e+00) (84, 1.70477461814880371094e+00) (85, 1.17643455505371093750e+02) (86, 8.43162250518798828125e+00) (87, 3.44340968132019042969e+00) (88, 1.92962765693664550781e+00) (89, 1.88032770156860351562e+00) (90, 1.95917105674743652344e+00) (91, 4.07393217086791992188e+00) (92, 9.18088912963867187500e+00) (93, 2.03606438636779785156e+00) (94, 2.71599054336547851562e-01) (95, 5.74149656295776367188e+00) (71, 1.49931823730468750000e+03) (72, 1.49969543457031250000e+03) (73, 1.47056225585937500000e+03) (74, 1.49969250488281250000e+03) (75, -1.43443823242187500000e+03) (76, 1.49969250488281250000e+03) (77, 1.49969543457031250000e+03) (78, 1.49981372070312500000e+03) (79, -1.43617846679687500000e+03) (80, 1.49981372070312500000e+03) (81, 1.49981372070312500000e+03) (82, 1.49995581054687500000e+03) (83, 1.49981372070312500000e+03) (84, 1.49981372070312500000e+03) (85, 1.47056225585937500000e+03) (86, 1.49969543457031250000e+03) (87, 1.49981372070312500000e+03) (88, 1.49981372070312500000e+03) (89, 1.49981372070312500000e+03) (90, 1.49981372070312500000e+03) (91, -1.43488696289062500000e+03) (92, 1.49969250488281250000e+03) (93, 1.49981372070312500000e+03) (94, 1.49981372070312500000e+03) (95, 1.49951000976562500000e+03) (71, -1.36007064819335937500e+02) (72, 2.03828628540039062500e+02) (73, -4.58761558532714843750e+01) (74, -1.78087036132812500000e+02) (75, 2.47244812011718750000e+02) (76, -1.78528808593750000000e+02) (77, 2.07079879760742187500e+02) (78, -1.59449203491210937500e+02) (79, -1.18248527526855468750e+02) (80, -1.60179870605468750000e+02) (81, -1.59913177490234375000e+02) (82, -1.68115661621093750000e+02) (83, -1.59794952392578125000e+02) (84, -1.60034332275390625000e+02) (85, -4.57189750671386718750e+01) (86, 2.04651641845703125000e+02) (87, 9.11880371093750000000e+02) (88, -1.58336318969726562500e+02) (89, -1.59797637939453125000e+02) (90, -1.59675399780273437500e+02) (91, -1.06105308532714843750e+02) (92, -1.77565734863281250000e+02) (93, -1.59466033935546875000e+02) (94, -1.59584060668945312500e+02) (95, -1.44492340087890625000e+02) (71, -9.45913314819335937500e+01) (72, 1.11536735534667968750e+02) (73, 1.37997312545776367188e+01) (74, -1.02478744506835937500e+02) (75, 1.55822753906250000000e+02) (76, -1.01720260620117187500e+02) (77, 1.12263694763183593750e+02) (78, -1.03809539794921875000e+02) (79, -5.70866203308105468750e+01) (80, -1.03682388305664062500e+02) (81, -1.03453529357910156250e+02) (82, -1.02080726623535156250e+02) (83, -1.03728401184082031250e+02) (84, -1.03008323669433593750e+02) (85, 1.37485065460205078125e+01) (86, 1.12495452880859375000e+02) (87, 4.06626068115234375000e+02) (88, -1.03633430480957031250e+02) (89, -1.03674293518066406250e+02) (90, -1.03429130554199218750e+02) (91, 4.74275827407836914062e+00) (92, -1.02423507690429687500e+02) (93, -1.03385368347167968750e+02) (94, -1.03762832641601562500e+02) (95, -9.71649703979492187500e+01) (96, 1.89432609081268310547e+00) (97, 3.00377225875854492188e+00) (98, 2.12726759910583496094e+00) (99, 1.69250559806823730469e+00) (100, 5.82262659072875976562e+00) (101, 9.02698755264282226562e-01) (102, 3.13239598274230957031e+00) (103, 1.81757116317749023438e+00) (104, 2.19545364379882812500e+00) (105, 3.29094910621643066406e+00) (106, 3.36125469207763671875e+00) (107, 4.31664133071899414062e+00) (96, 8.80842447280883789062e-01) (97, 2.04273939132690429688e+00) (98, 2.31120514869689941406e+00) (99, 1.48176252841949462891e+00) (100, 2.83027052879333496094e+00) (101, 7.92929470539093017578e-01) (102, 1.70547735691070556641e+00) (103, 1.95513987541198730469e+00) (104, 2.06594562530517578125e+00) (105, 3.08890223503112792969e+00) (106, 2.45894885063171386719e+00) (107, 4.91263437271118164062e+00) (96, 1.27831614017486572266e+00) (97, 2.23640823364257812500e+00) (98, 2.14260935783386230469e+00) (99, 1.05795633792877197266e+00) (100, 2.32994008064270019531e+00) (101, 5.45868039131164550781e-01) (102, 1.83042287826538085938e+00) (103, 1.74024963378906250000e+00) (104, 2.99521613121032714844e+00) (105, 3.00131773948669433594e+00) (106, 2.79674386978149414062e+00) (107, 4.69335985183715820312e+00) (96, 1.49887597560882568359e+00) (97, 2.18055844306945800781e+00) (98, 2.39763426780700683594e+00) (99, 1.76276004314422607422e+00) (100, 3.96105170249938964844e+00) (101, 9.26419317722320556641e-01) (102, 1.92492425441741943359e+00) (103, 2.09403228759765625000e+00) (104, 7.21125483512878417969e-01) (105, 2.96730756759643554688e+00) (106, 2.62091565132141113281e+00) (107, 4.62571907043457031250e+00) (96, 1.71664476394653320312e+00) (97, 2.21119809150695800781e+00) (98, 2.74322676658630371094e+00) (99, 1.53264331817626953125e+00) (100, 3.49316191673278808594e+00) (101, 6.46848380565643310547e-01) (102, 2.50182676315307617188e+00) (103, 2.16200208663940429688e+00) (104, 5.88120147585868835449e-02) (105, 2.22710084915161132812e+00) (106, 2.34791421890258789062e+00) (107, 2.79395127296447753906e+00) (96, 3.88518786430358886719e+00) (97, 3.25041580200195312500e+00) (98, 2.19103479385375976562e+00) (99, 1.34538686275482177734e+00) (100, 2.45997714996337890625e+00) (101, 7.18989193439483642578e-01) (102, 3.44835567474365234375e+00) (103, 2.15881896018981933594e+00) (104, 2.48581290245056152344e+00) (105, 2.84367823600769042969e+00) (106, 3.01437926292419433594e+00) (107, 2.44482445716857910156e+00) (96, 1.13063228130340576172e+00) (97, 2.09867191314697265625e+00) (98, 2.72810840606689453125e+00) (99, 1.60079860687255859375e+00) (100, 3.54261708259582519531e+00) (101, 6.38807296752929687500e-01) (102, 2.31302809715270996094e+00) (103, 2.21371459960937500000e+00) (104, 4.13754880428314208984e-01) (105, 2.32727932929992675781e+00) (106, 2.32847046852111816406e+00) (107, 3.16285300254821777344e+00) (96, 9.45054233074188232422e-01) (97, 2.26226854324340820312e+00) (98, 2.59872078895568847656e+00) (99, 1.31396389007568359375e+00) (100, 3.59619355201721191406e+00) (101, 6.22401952743530273438e-01) (102, 2.30243897438049316406e+00) (103, 2.17369127273559570312e+00) (104, 8.41340303421020507812e-01) (105, 2.47103929519653320312e+00) (106, 2.42983865737915039062e+00) (107, 3.59777283668518066406e+00) (96, 6.26564741134643554688e+00) (97, 3.32358551025390625000e+00) (98, 2.01408600807189941406e+00) (99, 1.53022754192352294922e+00) (100, 1.17374241352081298828e+00) (101, 8.18353891372680664062e-01) (102, 3.94454574584960937500e+00) (103, 2.29950571060180664062e+00) (104, 1.74908077716827392578e+00) (105, 2.26437354087829589844e+00) (106, 3.26124930381774902344e+00) (107, 2.07112860679626464844e+00) 
